svm_type c_svc
kernel_type polynomial
degree 1
gamma 0.00222222
coef0 0
nr_class 3
total_sv 88
rho 0.130183 1.30619 -0.0503917
label 1 2 3
nr_sv 32 24 32
SV
3.820910760623186e-05 0 1:16 2:29 4:251 6:1 7:3 8:38 9:23 10:1 11:3 12:104 13:1 14:10 15:15 16:51 17:9 18:13 19:1 21:5 22:20 23:2 25:49 26:38 27:37 28:11 29:14 30:13 31:41 33:33 34:22 36:11 37:16 38:45 39:42 40:15 41:10 42:15 43:45 44:7 45:30 46:38 48:8 49:1 50:20 51:14 52:25 53:6 54:31 55:28 56:183 57:178 58:110 59:30 60:11 61:26 63:28 64:53 65:11 66:25 68:14 69:46 70:8 71:62 72:2 73:2 74:20 75:119 76:11 77:20 78:32 79:23 80:41 81:93 82:4 83:83 84:34 85:8 86:7 87:53 88:169 89:3 91:23 92:73 93:9 94:48 95:12 99:14 100:13 101:61 102:65 103:14 104:14 105:13 106:1 107:20 108:4 110:36 112:3 115:9 116:97 118:45 119:9 120:52 121:1 122:35 123:3 125:1 126:37 127:104 128:3 129:30 130:4 131:2 133:1 134:25 138:18 139:20 140:6 141:4 142:3 143:21 144:48 145:1 146:20 147:57 149:7 152:14 153:14 154:8 155:3 156:166 157:2 158:36 159:5 160:1 161:228 162:3 163:39 165:46 166:283 167:3 168:7 172:7 173:29 174:1 176:27 177:1 178:8 179:1 180:12 181:24 182:6 183:9 184:8 185:8 186:1 187:1 188:19 189:3 190:55 193:3 194:89 195:68 196:57 197:9 199:2 200:10 201:3 202:30 203:7 204:3 205:1 207:5 208:60 209:2 210:16 212:7 213:28 214:1 215:1 216:26 217:19 218:41 221:41 222:43 223:1 224:72 225:14 226:15 227:1 228:2 229:2 230:1 231:12 232:2 233:1 234:11 235:17 236:9 237:1 238:21 239:2 240:10 241:315 242:9 243:8 244:23 245:34 246:3 247:3 248:40 249:16 250:27 251:5 252:7 253:2 254:5 255:11 256:15 258:4 259:1 260:55 262:4 263:10 264:1 265:17 266:61 267:32 269:140 270:3 271:4 272:2 273:18 274:1 276:1 277:1 278:8 280:2 283:19 284:28 286:47 287:20 288:2 289:40 290:3 291:15 292:1 294:33 295:1 297:3 298:2 299:4 300:5 301:46 304:2 305:34 306:1 307:10 308:8 309:6 310:10 311:13 312:2 313:15 314:79 315:29 316:12 317:26 318:4 320:11 321:11 322:1 323:12 324:8 325:61 326:4 327:24 328:18 329:2 330:1 331:9 332:18 333:7 334:184 335:43 336:3 337:33 338:6 339:3 340:37 341:2 342:3 344:1 345:90 346:7 347:11 348:6 349:12 351:5 352:5952 354:3 355:1 356:38 357:6 358:13 359:4 360:2 362:2 363:6 364:7 365:47 366:1 367:5 369:23 370:137 371:4 372:26 373:4 374:1 375:26 376:5 377:8 378:9 379:33 380:11 381:7 383:1 384:5 385:32 386:2 387:8 388:11 389:15 390:22 392:2 393:1 394:7 395:44 396:3 399:3 400:38 402:3 403:3 404:15 405:5 406:4 408:5 409:8 410:6 411:6 412:24 413:1 414:11 415:4 416:32 417:10 418:11 419:8 420:13 421:11 422:4 426:17 427:4 429:15 430:20 431:34 432:22 433:13 434:12 435:57 436:4 437:19 438:17 440:201 441:2 442:19 443:7 444:11 445:4 446:50 447:19 448:55 449:9 450:18 
0.001281125427848042 0.001508388246056996 1:13 2:9 3:2 4:80 7:44 8:35 9:10 11:14 12:62 13:1 14:7 15:16 16:25 17:54 18:17 19:1 20:15 21:1 22:26 23:28 24:1 25:47 26:47 27:59 28:3 29:10 30:18 31:78 32:1 33:42 34:23 36:7 37:15 38:186 39:44 40:9 41:3 42:14 43:41 44:4 45:28 46:98 48:7 50:27 51:27 52:19 53:6 54:25 55:27 56:106 57:107 58:70 59:23 60:2 61:30 62:6 63:26 64:65 65:26 66:14 68:4 69:9 70:6 71:27 74:21 75:17 76:16 77:18 78:77 79:17 80:34 81:15 82:97 83:24 84:32 85:3 86:1 87:2 88:119 89:6 91:33 92:71 93:2 94:1 95:2 96:2 99:25 100:8 101:39 102:32 103:8 104:16 105:87 106:7 107:22 108:3 109:4 110:27 112:1 115:1 116:50 117:1 118:33 119:28 120:45 121:5 122:21 124:4 125:4 126:29 127:90 128:11 129:23 130:33 131:1 132:2 133:1 134:2 135:2 138:23 140:3 141:5 143:9 144:84 145:2 146:22 147:39 149:1 150:4 151:4 152:15 153:8 154:5 155:18 156:96 157:3 158:26 159:3 161:74 162:7 163:8 165:9 166:82 167:6 168:2 169:1 172:8 173:35 174:1 176:1 177:1 178:3 179:5 180:12 181:21 182:11 183:17 184:13 185:7 188:16 189:3 190:3 191:8 194:55 195:35 196:4 197:17 198:4 199:1 200:16 201:2 202:6 203:9 204:4 205:1 206:1 207:7 208:90 210:37 212:9 213:27 214:2 215:1 216:28 217:6 218:2 219:2 221:11 222:25 224:72 225:5 226:9 227:2 228:1 229:9 230:7 231:23 233:31 234:17 235:13 236:11 238:6 239:52 240:7 241:62 242:12 243:2 245:44 246:13 247:7 248:23 249:15 250:28 251:3 252:9 253:2 254:3 255:10 256:22 257:4 258:2 259:4 260:41 261:3 262:5 263:15 264:3 265:16 266:12 267:60 268:5 269:26 270:5 271:3 272:1 273:9 274:3 275:6 276:4 277:2 278:8 280:2 281:1 282:1 283:20 284:30 285:2 286:44 287:37 288:2 289:14 290:4 291:8 292:1 294:15 297:1 298:3 299:12 300:5 301:67 302:1 304:2 305:18 307:7 308:48 309:3 310:10 311:30 312:8 313:19 314:30 315:19 316:9 317:20 318:1 319:2 320:5 321:15 322:3 323:28 324:8 325:28 326:5 327:21 328:19 329:6 330:1 331:3 332:8 334:95 335:26 336:8 337:7 338:5 339:3 340:12 342:3 344:1 345:105 346:11 347:6 348:5 349:26 350:10 352:7781 354:3 355:1 356:39 357:37 358:12 359:3 360:4 362:1 363:3 364:13 365:5 366:2 368:2 369:28 370:77 371:1 372:23 373:2 375:22 376:4 377:4 378:13 379:25 380:9 381:2 382:6 384:3 385:30 386:6 387:6 388:8 389:34 390:25 393:4 394:24 395:9 396:2 398:2 399:6 400:27 401:3 402:4 403:6 404:9 405:1 406:5 408:8 409:2 410:4 411:11 412:26 413:3 414:3 415:3 416:31 417:23 418:22 419:1 420:7 421:15 422:6 423:1 424:3 425:2 426:7 427:3 429:21 430:24 431:61 433:14 434:4 435:52 436:2 437:20 438:16 439:2 440:151 441:1 442:15 443:2 444:8 445:4 446:139 447:10 448:15 449:8 450:19 
0.001877905876379173 0 1:17 2:49 3:5 4:29 5:18 6:41 7:42 8:27 9:15 10:113 11:11 12:29 13:8 14:11 15:25 16:42 17:20 18:15 20:15 21:2 22:16 23:8 25:103 26:19 27:8 28:11 29:65 30:19 31:5 33:84 34:24 35:60 36:24 37:11 38:15 39:29 40:25 41:9 42:22 43:82 44:5 45:43 46:8 47:8 48:14 49:1 50:129 51:21 52:39 53:8 54:15 55:12 56:15 57:61 58:54 59:93 60:6 61:26 62:48 63:132 64:57 65:4 66:58 67:8 68:16 69:42 70:11 71:44 72:3 74:14 75:32 76:22 77:66 78:9 79:10 80:34 81:12 82:7 83:45 84:19 85:15 86:13 87:110 88:25 89:8 90:27 91:15 92:131 93:27 94:74 95:33 96:36 97:17 98:41 99:70 100:14 101:16 102:24 103:39 104:13 105:10 106:5 107:23 108:67 109:6 110:39 111:60 112:92 113:263 115:6 116:17 117:14 118:34 119:90 120:99 121:16 122:9 123:60 124:2 125:4 126:31 127:31 128:10 129:87 130:1 131:43 132:102 133:40 134:14 136:21 137:32 138:9 139:26 140:16 141:7 142:26 143:16 144:71 145:16 146:19 147:2 148:3 149:2 150:12 151:3 152:45 153:8 154:20 155:47 156:140 157:5 158:18 159:59 160:20 161:73 162:16 163:44 165:9 166:62 167:33 168:52 169:4 170:8 171:35 172:31 173:42 174:21 175:43 176:28 177:54 178:27 179:11 180:5 181:37 182:8 183:51 184:24 185:13 186:18 187:26 188:29 189:1 190:40 191:1 192:2 193:5 194:16 195:54 196:998 197:21 198:33 199:22 200:30 201:51 202:40 203:15 204:65 205:37 206:4 207:3 208:32 209:32 210:2 211:50 212:7 213:15 214:45 215:63 216:26 217:7 218:12 219:24 220:35 222:16 223:45 224:36 225:27 226:28 227:41 228:28 229:10 230:9 231:12 232:2 233:6 234:70 235:10 236:23 237:22 238:26 239:36 240:60 241:86 242:35 243:1 244:43 245:23 246:23 247:87 248:12 249:7 250:6 251:4 252:31 253:17 254:8 255:28 256:240 257:15 258:15 259:33 260:42 261:12 262:12 263:7 264:20 265:4 266:63 267:23 268:201 269:89 270:54 271:6 272:7 273:45 274:20 275:1 276:34 277:25 278:26 279:4 280:33 281:39 282:11 283:12 284:54 285:63 286:38 287:27 288:3 289:30 290:51 291:22 292:43 293:26 294:4 295:2 296:49 297:42 298:16 299:13 300:4 301:8 304:12 305:13 307:5 308:12 309:18 310:20 311:25 312:12 313:188 314:52 315:31 316:17 317:13 318:1 320:29 321:11 323:8 324:11 325:15 326:18 327:4 328:10 329:5 331:10 332:4 333:4 334:27 335:23 336:2 337:2 338:14 339:1 340:10 341:3 342:1 344:2 345:17 346:1 347:8 348:8 349:20 350:2 352:2620 353:2 354:11 355:1 356:19 357:27 358:15 359:9 360:8 361:4 362:1 363:2 364:32 365:51 366:15 367:4 368:20 369:9 370:84 371:1 372:16 373:7 374:1 375:11 376:6 377:1 378:42 379:9 380:25 381:4 382:2 383:31 384:6 385:30 386:2 387:4 388:59 389:4 390:19 391:14 392:2 393:6 394:51 395:32 396:26 398:25 399:2 400:32 401:10 402:14 403:3 404:3 405:12 407:18 408:5 409:15 410:5 411:19 412:54 414:10 416:23 417:6 418:12 419:19 420:7 421:35 422:7 423:1 424:136 425:3 426:10 427:28 429:8 430:12 431:85 432:2 433:1 434:25 435:16 436:4 437:13 438:17 439:4 440:74 441:11 442:10 443:18 444:6 445:1 446:42 447:9 448:7 449:14 450:14 
0.001329637349654381 0.0003150010453896821 1:17 2:6 3:8 4:5 5:5 6:21 7:109 8:23 9:20 10:45 11:51 12:21 13:13 14:20 15:66 16:59 17:9 18:22 19:2 20:4 21:4 22:29 23:1 24:4 25:113 26:56 27:4 28:63 29:119 30:35 31:7 32:8 33:34 34:52 35:82 36:6 37:14 38:24 39:92 40:38 41:8 42:13 43:123 44:16 45:9 46:5 47:53 48:35 50:74 51:43 52:9 53:20 54:43 55:5 56:41 57:109 58:108 59:17 60:1 61:13 62:7 63:42 64:63 66:81 67:3 68:30 69:53 70:20 71:32 72:9 73:4 74:38 75:8 76:12 77:112 78:110 79:18 80:18 81:1 82:97 83:23 84:61 85:39 86:47 87:56 88:27 89:4 90:27 91:30 92:44 93:10 94:57 95:23 96:7 97:99 98:105 99:30 100:14 101:10 102:36 103:46 104:30 105:1 106:16 107:95 108:45 109:79 110:54 111:6 112:73 113:158 114:1 115:74 116:16 117:67 118:25 119:46 120:31 121:22 122:55 123:142 124:12 125:29 126:58 127:15 128:9 129:98 130:1 131:46 132:25 133:8 134:53 135:6 136:57 137:25 138:38 139:2 140:43 141:6 142:12 143:14 144:66 145:12 146:56 147:141 148:19 149:10 150:1 151:6 152:66 153:48 154:9 155:137 156:95 157:24 158:20 159:48 160:76 161:42 162:183 163:76 164:7 165:2 166:46 167:97 168:75 169:4 170:18 171:23 172:21 173:10 174:12 175:69 176:44 177:23 178:26 179:3 181:17 182:5 183:40 184:10 185:17 186:21 187:39 188:20 189:1 190:102 191:14 192:5 193:11 194:9 195:37 196:262 197:17 198:13 199:21 200:24 201:54 202:58 203:27 204:17 205:33 206:15 207:17 208:36 209:335 211:38 212:14 213:27 214:27 215:37 216:19 217:13 218:50 219:19 220:46 221:2 222:5 223:54 224:80 225:58 226:26 227:28 228:28 229:6 230:8 231:4 232:3 233:5 234:413 235:19 236:43 237:181 238:49 239:51 240:14 241:40 242:14 243:9 244:47 245:3 246:16 247:557 248:19 249:14 250:13 251:11 252:89 253:11 254:48 255:21 256:58 257:11 258:24 259:90 260:31 261:42 262:25 263:15 264:18 265:18 266:6 267:8 268:47 269:31 270:164 271:11 272:3 273:34 274:8 275:7 276:28 277:8 278:63 279:6 280:44 281:29 282:47 283:1 284:20 285:20 286:33 287:23 288:4 289:73 290:66 291:36 292:15 293:45 294:5 295:5 296:47 297:34 298:24 299:9 300:18 301:97 302:4 303:12 304:12 305:28 306:2 307:3 308:1 309:18 310:25 311:75 312:11 313:59 314:61 315:6 316:16 317:25 318:6 319:47 320:95 321:12 322:3 323:21 324:17 325:2 326:16 327:11 328:17 329:3 331:20 332:1 333:7 334:13 335:24 336:21 337:2 339:33 340:81 341:7 342:7 343:7 344:9 345:41 346:3 347:9 348:8 349:153 350:6 351:4 352:436 353:3 354:15 356:32 357:7 358:23 359:7 360:4 361:9 362:10 363:7 364:54 365:53 366:33 367:11 368:3 369:13 370:141 371:3 372:15 373:18 374:3 375:3 376:9 377:12 378:20 379:1 380:31 381:9 382:1 383:2 384:48 385:77 386:3 387:9 388:52 390:30 391:2 392:9 393:8 394:141 396:25 397:6 398:5 399:17 400:14 401:5 402:10 403:23 404:32 405:16 406:1 408:14 409:20 410:14 411:15 412:55 414:9 415:15 416:27 417:3 418:18 419:17 420:7 421:27 422:19 423:9 424:25 425:98 426:16 427:23 429:16 430:10 431:16 432:3 433:1 434:25 435:15 436:1 437:20 438:17 439:12 440:12 441:19 442:11 443:29 444:10 445:2 446:2 447:22 449:33 450:13 
0 0.0006107322965352337 1:6 2:8 3:6 4:89 5:2 6:20 7:4 8:23 9:10 10:73 11:22 12:22 13:1 14:7 15:10 16:118 17:75 18:18 20:39 21:3 22:11 23:40 24:59 25:7 26:13 27:27 28:10 29:50 30:13 31:356 32:2 33:26 34:10 35:47 36:8 37:5 38:40 39:34 40:3 41:14 42:10 43:125 44:9 45:11 46:360 47:35 48:102 49:39 50:44 51:18 52:83 53:4 54:4 55:1 56:132 57:27 58:38 59:23 61:14 62:37 63:9 64:44 65:58 66:76 67:10 68:10 69:4 70:7 71:60 72:5 74:12 75:92 76:6 77:43 78:2 79:13 80:14 81:2 82:56 83:33 84:15 85:83 86:6 87:61 88:6 89:19 90:5 91:21 92:108 93:6 94:101 95:1 96:15 97:54 98:50 99:39 100:13 101:4 102:74 103:31 104:4 105:10 106:2 107:15 108:65 109:7 110:11 111:8 112:14 113:52 115:4 116:39 117:1 118:25 119:54 120:56 121:1 123:2 124:2 125:8 126:5 127:15 128:9 129:4 130:146 132:3 133:1 134:16 135:1 136:56 137:50 138:10 139:46 140:27 141:13 142:11 143:2 144:131 145:37 146:24 147:31 148:1 149:16 150:16 151:43 152:5 153:6 154:10 156:138 157:1 158:14 159:5 160:5 161:35 163:32 164:8 165:212 166:19 168:1 172:7 173:7 174:4 175:1 176:43 177:3 178:22 179:50 180:204 181:7 182:7 183:105 184:1 185:3 187:2 188:46 189:4 190:108 191:3 193:11 194:11 195:12 197:6 198:6 199:2 200:3 201:2 202:9 203:5 204:4 205:7 206:5 207:15 208:14 209:1 210:143 211:3 212:39 213:9 214:5 215:1 216:12 217:5 218:12 219:3 220:3 221:64 222:2 223:4 224:46 225:4 226:7 227:4 228:10 229:76 230:86 231:50 233:24 234:9 235:8 236:4 237:1 238:101 239:2 241:85 242:8 244:4 245:5 246:4 248:8 249:5 250:3 251:2 252:2 254:7 255:24 256:7 257:8 258:1 260:28 262:7 263:1 264:3 265:9 266:1 267:16 268:8 269:43 271:12 273:9 274:60 276:1 277:2 278:88 280:1 281:3 283:39 284:12 285:4 286:23 287:8 290:15 291:6 293:2 294:33 295:1 296:4 297:2 298:10 299:31 301:6 302:29 303:12 304:15 305:16 306:1 307:135 308:14 309:26 310:52 311:1 312:29 313:6 314:14 315:3 316:75 317:9 318:1 319:10 320:10 321:11 322:4 323:9 324:22 325:5 326:3 328:4 329:15 331:12 332:59 333:13 334:24 335:12 336:7 337:118 338:113 339:4 341:52 342:2 343:2 344:1 345:60 346:4 347:9 348:23 349:7 350:39 351:1 352:4521 353:1 354:14 355:1 356:7 357:124 358:30 359:37 360:54 361:65 362:27 363:18 364:12 365:46 366:6 367:24 368:47 369:2 370:104 372:31 373:11 374:55 376:25 377:1 378:13 379:9 380:18 381:19 382:26 383:12 384:5 385:10 386:14 387:5 388:31 390:7 392:16 393:7 394:41 395:2 396:11 398:46 399:1 400:3 401:34 402:8 403:4 404:10 405:13 407:83 408:19 409:33 410:48 411:13 412:21 414:28 415:4 416:30 417:79 418:5 419:7 420:27 421:8 422:3 423:3 424:7 425:4 426:8 427:12 429:2 430:11 431:6 432:62 433:58 434:3 435:15 436:7 437:2 438:2 439:23 440:205 441:5 442:2 443:5 444:21 445:12 446:5 447:3 448:72 449:4 450:3 
0 0.0008713750364222063 1:10 2:18 3:165 6:36 8:27 9:23 10:5 11:40 12:76 13:2 14:14 15:13 16:61 17:36 18:13 20:28 21:10 22:29 23:39 24:74 26:10 27:19 28:16 30:13 31:107 32:122 33:55 34:6 35:56 36:11 37:13 38:18 39:23 40:11 41:20 42:27 43:3 44:4 45:13 46:90 48:17 49:13 50:2 51:17 53:8 54:18 55:18 56:13 57:27 58:34 59:97 60:15 61:14 65:166 66:68 67:236 68:12 69:43 70:19 71:16 72:17 73:49 74:12 75:7 76:13 77:2 78:43 79:16 80:28 81:2 82:44 83:47 84:17 85:20 86:19 88:12 89:31 90:261 91:21 92:8 93:4 95:17 96:105 97:18 98:2 99:49 100:26 101:23 102:3 103:35 104:16 105:37 106:6 107:13 108:7 109:432 110:17 112:17 114:41 115:11 116:39 117:201 118:36 120:45 121:5 122:14 123:35 124:27 125:297 126:30 127:10 128:8 129:10 130:103 131:54 132:54 133:9 134:1 135:107 136:376 137:7 138:5 139:67 140:5 141:12 142:58 143:10 144:16 146:12 148:544 149:19 150:10 151:2 152:8 153:12 154:11 155:2 156:15 158:100 159:1 160:1 161:25 163:2 165:76 166:5 167:1 170:256 172:1 173:26 176:1 178:18 180:188 181:23 182:18 183:41 184:8 185:8 186:2 188:18 189:6 190:2 191:3 192:1 193:11 194:38 195:17 196:1 197:10 200:7 202:18 203:5 206:252 207:6 208:15 210:42 212:24 213:18 216:17 217:39 218:7 221:62 222:15 224:36 225:27 226:14 228:1 230:56 231:15 233:23 234:9 235:20 236:5 238:45 240:2 241:1 242:2 243:2 244:15 245:54 246:1 248:16 249:10 250:9 252:5 254:33 255:10 256:4 258:18 259:1 260:26 261:5 262:2 263:12 265:10 266:17 267:12 268:1 270:1 271:3 273:6 275:21 278:32 282:1 283:23 284:20 286:35 287:66 288:2 289:1 290:1 291:8 293:3 294:75 295:1 299:9 300:6 301:79 302:39 303:399 304:37 305:39 307:35 308:36 309:47 310:8 311:13 312:26 313:15 314:30 315:35 316:1 317:16 318:19 319:59 320:10 321:18 322:2 323:19 324:14 325:9 326:5 327:27 328:8 329:8 330:115 331:13 332:21 333:17 334:25 335:25 337:46 338:27 339:35 340:13 341:145 342:3 343:173 344:56 345:75 346:13 347:32 348:30 349:21 350:25 351:69 352:1375 353:221 354:8 355:13 356:15 357:14 358:21 359:28 361:44 362:31 363:14 364:1 365:220 366:4 367:27 368:8 369:12 370:24 372:25 373:11 374:41 375:45 376:12 377:16 378:3 379:115 380:17 381:15 382:22 383:20 384:22 385:29 386:5 387:4 388:54 389:32 390:27 391:91 392:30 393:4 394:26 395:128 396:26 397:57 398:53 399:22 400:23 401:1 402:64 403:2 404:27 405:16 406:8 407:15 408:11 410:33 411:37 412:36 413:135 414:36 415:3 416:22 417:77 418:15 419:14 420:31 421:6 422:11 423:15 424:26 425:19 426:9 427:38 428:73 429:11 430:23 431:299 432:99 433:26 434:11 435:19 436:6 437:13 438:10 439:30 440:125 441:111 442:13 443:8 444:14 445:5 446:71 447:11 448:31 449:15 450:10 
0.003147417616245775 0 1:17 3:2 4:30 5:6 6:1 7:69 8:27 9:13 10:39 11:5 12:15 13:10 14:4 15:25 16:69 18:11 21:4 22:21 24:1 25:51 26:23 27:4 29:75 30:9 32:7 33:37 34:16 35:26 36:9 37:17 38:9 39:27 40:10 41:3 42:17 43:144 44:5 45:23 46:1 47:17 48:1 50:60 51:35 52:36 53:13 54:21 55:14 56:10 57:39 58:23 59:49 60:11 61:8 62:3 63:67 64:23 65:4 66:58 67:3 68:11 69:19 70:6 71:11 72:1 73:3 74:12 75:26 76:10 77:56 78:9 79:18 80:26 81:22 83:14 84:31 85:10 86:7 87:45 88:19 89:9 90:12 91:40 92:28 93:18 94:36 95:37 97:1 98:24 99:57 100:2 101:10 104:14 106:2 107:19 109:41 110:25 111:5 114:3 115:6 116:55 117:31 118:35 119:41 120:41 121:4 122:5 123:19 124:8 125:11 126:23 127:13 128:11 132:17 133:9 134:1 137:23 138:12 140:3 141:1 142:1 143:16 144:34 146:38 147:160 149:2 150:3 151:1 152:19 153:8 154:10 156:62 158:15 159:7 161:18 162:8 163:9 166:19 167:4 168:3 169:1 170:7 172:1 173:17 174:4 176:11 177:10 178:21 180:1 181:15 182:7 184:5 185:3 186:1 187:1 188:15 189:10 190:1 191:1 193:4 194:14 195:16 197:14 200:9 202:5 203:13 204:8 205:2 206:9 207:2 208:64 211:6 213:21 214:3 215:8 216:19 217:8 218:12 219:5 220:2 222:19 224:57 225:8 226:17 227:5 228:3 230:2 233:3 234:9 235:9 236:12 239:36 240:3 241:20 242:11 243:1 244:8 245:8 247:2 248:19 249:7 250:8 252:3 253:3 254:3 255:1 256:6 260:22 261:4 262:2 263:12 265:17 266:2 267:9 268:7 269:28 270:3 271:12 273:11 275:8 277:1 278:20 279:1 280:7 281:9 283:10 284:26 285:10 286:40 287:25 288:1 289:51 291:24 293:2 294:19 295:2 296:21 298:2 299:3 300:4 301:3 303:3 304:2 305:15 307:6 308:2 309:6 310:3 311:1 312:4 313:12 314:14 315:5 317:12 318:11 319:4 321:6 322:8 323:3 324:28 325:19 326:7 327:12 328:25 329:4 330:4 331:14 333:12 334:15 335:10 336:12 339:5 340:10 341:14 342:6 343:1 344:3 345:19 346:10 347:6 348:3 349:3 350:3 351:6 352:9576 353:7 354:13 356:31 357:4 358:22 360:1 361:1 363:22 364:17 365:63 366:4 367:1 369:11 370:25 372:11 373:10 375:4 376:27 377:13 378:1 379:6 380:13 381:6 382:1 384:17 385:23 386:17 387:15 388:26 389:13 390:14 391:1 393:3 394:1 395:5 396:2 398:4 399:9 400:23 402:6 403:11 404:8 405:27 406:8 407:22 408:27 410:1 411:18 412:10 413:31 414:4 415:12 416:27 418:10 419:12 420:13 421:14 422:7 423:17 424:29 425:5 426:21 427:12 429:11 430:14 431:88 432:1 433:2 434:26 435:12 436:22 437:12 438:13 439:2 440:40 442:5 443:4 444:8 445:9 446:31 447:8 448:13 449:6 450:20 
0.001234745879932226 0.0002541909186631046 1:28 2:108 4:172 5:1 7:3 8:19 9:28 10:8 11:145 12:131 13:2 14:11 15:37 16:2 17:12 18:18 20:59 21:1 22:33 23:14 25:8 26:69 27:14 28:39 30:21 33:16 34:57 35:18 36:11 37:36 38:27 39:151 40:8 41:8 42:6 43:1 45:17 48:42 50:5 51:43 52:4 53:23 54:27 55:9 56:138 57:228 58:143 59:11 60:60 61:37 63:16 64:139 66:11 68:16 69:182 70:15 71:122 72:14 73:4 74:41 75:35 76:1 78:14 79:27 80:37 81:17 82:3 83:136 84:58 86:1 87:3 88:79 89:1 91:51 92:109 93:3 94:2 95:32 96:7 98:4 99:7 100:10 101:37 102:200 103:19 104:25 105:9 106:1 107:59 110:62 112:3 113:5 114:1 115:16 116:26 118:30 120:4 121:6 122:6 123:1 124:7 126:31 127:109 128:4 129:73 132:34 133:7 134:83 136:1 137:2 138:38 141:8 142:2 143:17 144:309 146:46 149:6 150:52 152:19 153:29 154:1 155:13 156:148 158:25 159:13 161:288 162:34 163:6 165:2 166:206 167:3 168:6 170:1 171:1 172:4 173:30 176:3 178:3 181:19 182:1 183:200 184:17 185:8 188:16 189:1 190:129 191:1 193:1 194:15 195:77 196:125 197:3 198:2 200:5 201:3 202:22 203:13 205:4 206:1 207:14 208:55 210:3 212:5 213:35 214:1 216:18 217:10 218:33 222:28 224:53 225:6 226:11 227:2 231:27 234:10 235:24 236:21 237:1 238:44 239:19 240:4 241:167 242:14 243:2 244:47 245:2 246:9 247:6 248:11 249:20 250:6 252:9 253:1 254:2 255:19 256:30 260:6 261:1 262:5 263:6 265:3 266:51 267:49 268:34 269:131 270:3 273:4 274:2 275:12 277:2 278:74 280:2 283:34 284:33 286:39 287:43 289:11 290:5 291:2 293:2 294:23 296:2 299:23 300:8 305:30 307:2 308:3 309:2 310:17 311:32 313:16 314:129 315:10 316:3 317:27 318:1 320:54 321:22 322:2 323:26 324:5 325:1 326:1 327:18 328:6 330:8 331:4 334:23 335:18 336:2 337:1 338:4 340:12 341:29 344:6 345:166 346:5 347:16 348:4 349:23 350:2 352:5246 354:3 356:46 357:99 358:5 359:2 361:1 362:1 363:1 364:3 365:62 366:2 368:6 369:25 370:136 372:29 373:9 376:1 377:2 378:15 379:4 380:1 381:6 382:1 383:65 384:3 385:29 386:1 387:2 388:18 389:1 390:27 394:52 396:5 398:86 399:2 400:28 402:2 403:1 404:15 405:6 406:1 407:32 408:3 409:2 410:4 411:6 412:20 413:2 414:6 415:1 416:50 417:3 418:4 419:3 420:2 421:24 422:9 424:28 425:13 426:3 429:10 430:23 431:37 432:4 434:4 435:9 436:3 437:17 438:28 440:272 442:15 443:2 444:2 446:148 447:21 448:1 449:14 450:2 
0.001552751853432097 0.0001223067265884885 1:27 2:74 4:83 5:1 7:2 8:67 9:10 10:33 11:3 12:84 13:2 14:9 15:12 16:30 17:44 18:23 19:4 20:1 21:5 22:34 23:9 24:5 25:2 26:29 27:18 28:5 29:24 30:9 31:278 33:21 34:20 35:1 36:20 37:24 38:127 39:111 40:18 41:9 42:13 43:19 44:9 45:32 46:219 48:16 49:1 50:13 51:14 52:12 53:9 54:25 55:34 56:77 57:17 58:117 59:7 60:8 61:44 62:8 63:18 64:79 65:200 66:11 68:13 69:16 70:8 71:24 73:1 74:13 75:11 76:13 77:25 78:66 79:39 80:73 81:39 82:119 83:139 84:25 85:3 86:3 87:37 88:30 89:3 91:18 92:37 93:14 94:19 95:8 96:2 99:23 100:15 101:23 103:10 104:10 105:43 107:21 108:5 110:34 111:9 112:1 114:1 115:6 116:204 118:60 119:2 120:4 121:12 122:29 123:2 124:2 125:1 126:16 127:96 128:10 129:3 130:90 132:13 133:13 134:2 138:11 141:8 142:2 143:20 144:35 146:13 147:21 149:3 150:13 151:5 152:2 153:20 154:4 155:3 156:90 157:6 158:112 159:14 161:13 162:24 163:4 164:1 165:26 166:16 167:4 168:10 169:2 170:6 172:6 173:44 176:5 178:19 179:1 180:49 181:29 182:80 183:1 184:18 185:3 186:3 188:28 189:2 190:3 191:1 193:1 194:211 195:26 196:14 197:22 200:7 202:22 203:10 205:7 206:6 207:15 208:109 209:4 210:111 212:15 213:35 215:5 216:41 217:17 218:6 220:1 221:37 222:3 224:122 225:8 226:28 228:5 229:3 230:67 233:150 234:12 235:13 236:12 238:1 240:15 241:9 242:13 243:4 244:5 245:124 246:5 247:5 248:72 249:24 250:42 251:1 252:10 253:2 254:13 255:20 256:20 257:2 258:2 259:1 260:90 261:1 262:3 263:31 264:1 265:39 266:59 267:48 268:7 269:64 270:7 271:10 272:1 273:16 274:9 275:3 277:1 282:2 283:11 284:47 285:1 286:81 287:29 288:3 289:5 290:10 291:29 292:1 294:24 295:2 296:7 297:2 298:2 299:17 300:5 301:69 304:1 305:29 306:3 307:3 308:56 309:4 310:10 311:10 312:3 313:17 314:10 315:40 316:14 317:21 318:7 319:1 320:75 321:32 322:4 323:40 324:34 325:17 326:5 327:31 328:35 329:4 330:1 331:4 332:15 333:4 334:138 335:123 336:13 337:9 338:50 339:2 340:22 342:3 344:6 345:93 346:15 347:21 348:11 349:13 350:4 352:5320 355:2 356:47 357:2 358:28 359:10 360:1 362:3 363:7 364:2 365:3 366:3 367:2 368:12 369:28 370:120 371:2 372:41 374:2 375:24 376:2 377:21 378:9 379:249 380:13 381:1 382:9 383:24 384:9 385:27 386:8 387:12 388:12 389:20 390:46 392:5 393:5 394:31 395:28 396:12 397:6 398:25 399:17 400:50 401:1 402:3 403:15 404:6 405:5 406:10 407:6 408:27 409:1 410:5 411:13 412:14 413:8 414:18 415:10 416:51 417:28 418:24 419:10 420:14 421:22 422:7 423:5 424:39 425:1 426:28 427:4 429:25 430:33 431:23 433:6 434:14 435:85 436:10 437:23 438:14 439:2 440:43 441:3 442:20 443:3 444:16 445:3 446:119 447:12 448:14 449:7 450:36 
0 0.001060853162773161 1:29 2:21 3:6 5:122 6:33 8:23 9:2 10:89 12:1 13:14 14:13 15:10 16:33 17:7 18:13 20:1 21:7 22:23 23:7 24:7 25:86 26:19 27:1 30:14 32:1 33:67 34:27 35:57 36:14 37:6 39:5 40:12 41:3 42:23 44:10 45:24 47:19 48:1 50:53 51:29 52:31 53:17 54:21 55:23 57:4 58:1 59:96 61:8 62:92 63:117 66:60 67:7 68:15 69:4 70:10 71:34 72:54 73:5 74:16 76:18 77:89 78:7 79:14 80:19 83:2 84:20 85:12 86:13 87:81 88:3 89:5 90:59 91:30 92:3 93:17 94:16 95:43 96:91 98:35 99:91 100:4 101:3 103:1 104:24 105:3 106:3 107:43 109:26 110:26 111:81 112:2 114:32 116:15 117:29 118:31 119:90 120:95 121:28 122:5 123:5 124:16 125:5 126:15 127:3 128:6 129:3 131:20 132:87 133:8 135:54 136:30 137:18 138:24 139:13 140:24 141:2 142:6 143:4 146:25 148:16 149:4 152:20 153:14 154:3 155:1 156:12 158:6 159:12 167:12 168:2 170:7 172:4 173:24 178:27 179:1 180:1 181:26 182:7 184:3 185:7 186:6 188:13 189:7 193:4 194:4 195:8 196:21 197:16 200:15 202:2 203:12 206:8 207:2 208:5 211:1 212:1 213:26 215:1 216:27 217:3 221:1 224:11 225:22 226:24 227:1 228:3 231:1 234:17 235:11 236:9 239:24 240:8 242:12 244:4 245:1 248:14 249:11 250:4 252:6 255:2 256:12 258:15 259:2 260:17 261:9 262:8 263:19 265:12 266:19 267:2 268:20 269:4 270:4 271:9 273:5 274:1 275:14 278:49 282:3 283:3 284:20 286:21 287:62 289:3 291:38 293:6 296:2 297:2 299:4 300:6 302:3 303:26 304:2 305:4 308:1 309:4 310:2 311:1 312:2 313:35 314:2 315:3 316:2 317:13 318:6 319:2 321:11 322:1 323:2 324:18 326:15 327:9 328:14 329:11 331:11 333:4 334:8 335:4 336:12 338:1 339:4 341:15 342:1 343:74 344:21 345:2 346:3 347:5 348:6 349:3 350:9 351:25 352:9096 354:6 355:2 356:20 357:7 358:24 359:1 360:1 362:4 363:10 364:20 365:215 366:11 367:3 369:8 370:30 371:5 372:14 373:5 374:1 375:2 376:14 377:7 378:8 379:7 380:26 381:1 382:4 383:1 384:5 385:16 386:16 387:22 388:7 390:27 391:3 392:4 393:4 394:47 396:11 397:27 399:6 400:15 402:11 403:4 404:5 405:26 406:2 408:14 410:1 411:29 412:6 413:66 414:2 415:7 416:16 418:17 419:11 420:8 421:5 422:6 423:3 424:22 426:15 427:12 428:28 429:16 430:7 431:234 432:126 434:33 435:2 436:14 437:18 438:14 439:3 440:12 441:5 442:11 443:13 444:10 445:2 446:6 447:5 449:18 450:12 
0.0009879916221636358 0 1:24 2:24 3:6 4:50 5:116 6:22 7:19 8:47 9:9 10:125 11:21 12:7 13:2 14:11 15:19 16:6 17:22 18:22 20:41 21:10 22:25 23:78 25:49 26:28 27:61 28:8 29:11 30:21 31:20 33:78 34:39 35:53 36:34 37:11 38:61 40:14 41:6 42:38 44:4 45:13 46:68 47:31 48:19 49:1 50:87 51:31 52:49 53:20 54:16 55:35 56:33 57:1 58:2 59:45 60:21 61:19 62:98 63:110 66:24 68:23 69:27 70:29 71:8 74:17 75:4 76:13 77:115 78:13 79:21 80:39 81:6 82:2 83:1 84:19 85:26 86:4 87:120 88:12 89:12 91:33 92:76 93:13 94:6 95:29 97:1 98:54 99:90 100:11 101:10 102:16 104:17 105:78 106:7 107:48 108:2 110:27 111:57 112:3 116:40 117:3 118:37 119:53 120:56 121:15 122:2 123:4 125:2 126:15 127:13 128:25 129:20 130:1 131:90 132:70 133:5 134:29 135:2 137:45 138:27 139:21 141:7 142:14 143:7 144:14 146:30 149:12 150:6 151:4 152:16 153:19 154:7 155:1 156:170 157:2 158:2 159:1 160:1 164:3 165:12 166:14 167:1 170:23 172:4 173:43 174:6 175:6 176:6 177:8 178:19 180:26 181:34 182:30 184:3 185:6 186:2 187:14 188:13 189:4 190:1 191:4 192:2 193:9 194:18 195:5 196:104 197:12 198:5 199:6 200:11 202:1 203:10 204:7 206:8 207:14 208:41 210:40 211:1 212:2 213:13 214:9 216:23 217:6 218:3 219:11 220:3 221:26 222:31 223:5 224:30 225:12 226:26 227:3 228:5 229:1 230:20 231:50 233:17 234:4 235:12 236:12 237:2 238:2 239:16 240:3 241:5 242:13 243:3 245:18 247:1 248:6 249:8 250:7 251:7 252:10 254:21 255:18 256:16 257:1 258:6 259:1 260:25 261:1 262:8 263:12 264:2 265:17 266:12 267:9 268:12 269:62 270:1 271:3 273:1 274:2 275:18 276:8 278:28 279:5 281:1 283:11 284:22 285:1 286:22 287:33 289:22 290:5 291:19 292:5 293:5 294:4 295:1 296:40 297:1 298:13 299:8 300:6 301:9 303:1 304:8 305:9 307:82 309:8 310:6 311:8 312:6 313:49 314:47 315:13 317:13 318:11 320:13 321:30 322:18 323:10 324:26 325:49 326:10 327:12 328:18 329:11 330:4 331:10 332:5 333:14 334:29 335:2 336:5 337:5 338:28 339:6 340:4 341:20 342:6 345:25 346:16 347:13 348:3 349:1 350:6 351:11 352:7795 354:5 355:1 356:14 357:45 358:30 359:7 361:2 362:1 363:4 365:25 366:5 367:3 368:5 369:6 370:73 372:13 373:19 374:1 375:7 376:16 377:11 378:17 379:3 380:23 381:9 382:8 383:13 384:2 385:17 386:6 387:5 388:15 389:33 390:18 391:1 392:1 393:12 394:12 396:16 398:25 399:4 400:13 401:4 402:10 403:9 404:6 405:19 406:5 408:20 409:1 410:12 411:38 412:8 413:1 414:8 415:13 416:17 417:6 418:6 419:18 420:14 421:3 422:9 423:13 424:48 426:22 427:17 429:8 430:10 431:34 433:5 434:20 435:8 436:7 437:13 438:17 440:106 442:5 443:6 444:12 445:10 446:41 447:8 449:11 450:9 
0 0.00258626130261298 1:13 2:31 3:3 4:32 5:54 8:42 9:15 10:93 11:1 12:60 13:3 14:7 15:7 16:83 18:6 20:52 21:12 22:23 24:6 25:1 26:23 27:3 28:1 29:31 30:14 31:8 33:132 34:10 35:97 36:8 37:32 38:21 39:18 40:17 41:1 42:21 43:91 44:1 45:16 47:52 49:2 50:102 51:14 52:65 53:17 54:17 55:22 56:46 57:20 58:51 59:57 60:20 61:8 62:29 63:18 64:17 65:1 66:107 67:8 68:13 70:5 71:10 73:1 74:7 75:19 76:5 77:32 78:12 79:15 80:25 81:11 82:1 83:22 84:17 85:2 86:1 87:66 88:9 89:9 91:22 92:109 93:12 94:63 95:34 96:4 98:9 99:64 100:4 101:34 102:7 104:13 105:6 106:1 107:22 110:23 111:21 112:2 114:17 115:2 116:44 118:25 119:63 120:85 121:7 122:5 124:6 125:1 126:24 127:28 128:13 129:11 132:37 133:8 134:2 135:33 137:34 138:8 139:8 141:7 142:29 143:5 144:17 146:13 147:171 149:5 150:6 151:1 152:3 153:14 154:4 155:2 156:38 157:1 158:6 159:3 160:1 161:17 163:6 166:11 167:8 168:6 170:10 172:6 173:28 176:57 178:28 181:27 182:4 184:14 185:12 186:6 187:1 188:10 189:14 190:9 193:4 194:23 195:20 197:5 200:6 202:7 203:18 206:5 207:10 208:22 212:6 213:19 216:31 217:13 218:2 222:23 223:1 224:47 225:2 226:15 228:2 230:1 234:6 235:9 236:9 239:12 240:4 241:25 242:6 243:1 244:10 245:36 246:2 248:16 249:6 250:12 252:3 253:2 255:2 256:18 260:24 261:4 262:2 263:9 265:14 266:49 267:35 268:33 269:17 270:1 271:15 273:8 275:5 278:7 279:1 282:1 283:3 284:28 286:32 287:84 289:24 291:31 293:2 294:44 295:1 299:5 300:8 301:8 302:2 304:4 305:17 308:6 309:11 310:2 311:6 312:3 313:40 314:112 315:4 316:1 317:31 318:5 320:17 321:20 322:1 323:12 324:14 325:99 326:21 327:19 328:14 329:6 331:9 332:1 333:5 334:23 335:15 336:1 337:1 340:1 344:3 345:156 346:6 347:13 349:5 350:4 352:7303 354:9 356:32 357:2 358:10 359:5 361:2 362:1 363:19 364:3 365:287 366:1 367:2 368:20 369:23 370:25 372:16 373:9 374:2 375:11 376:20 377:5 378:30 380:9 381:8 382:1 383:49 384:53 385:16 386:14 387:22 388:10 389:98 390:18 391:94 392:8 393:3 394:2 396:5 397:35 398:82 399:5 400:22 401:1 402:3 403:1 404:11 405:31 406:2 407:106 408:25 409:5 410:4 411:17 412:5 413:131 414:4 415:2 416:24 417:1 418:13 419:16 420:9 421:18 422:6 423:4 424:13 425:7 426:29 427:18 428:15 429:9 430:24 431:305 432:72 433:1 434:30 435:18 436:20 437:30 438:6 439:2 440:207 441:55 442:15 443:2 444:7 445:1 446:72 447:11 448:84 449:11 450:14 
0.0002903335151517143 0.00203700886573246 1:24 2:66 3:5 6:27 8:44 9:19 10:8 11:208 12:97 14:16 15:9 16:50 17:40 18:16 21:14 22:21 24:6 26:16 27:21 28:1 29:4 30:20 32:112 33:47 34:14 36:9 37:14 39:134 40:19 41:12 42:19 43:4 44:9 45:10 48:28 51:21 52:1 53:12 54:16 55:26 57:208 58:128 59:2 61:15 64:19 66:27 67:1 68:16 69:211 70:25 71:158 72:28 73:48 74:15 75:58 76:6 78:86 79:22 80:31 81:28 82:27 83:80 84:36 86:1 88:88 89:14 91:13 92:102 93:7 95:22 96:79 99:67 100:15 101:36 103:37 104:27 105:44 106:6 107:35 108:2 109:5 110:36 112:22 114:54 115:156 116:52 118:35 120:117 121:5 122:12 123:8 124:25 125:28 126:27 127:46 128:17 129:62 131:41 132:46 133:30 134:7 135:89 136:1 138:10 139:16 141:8 142:57 143:10 144:128 146:16 148:8 149:21 150:5 152:4 153:23 154:9 155:1 156:50 158:59 159:7 161:96 163:1 167:1 170:9 172:1 173:24 176:1 178:26 180:2 181:40 182:1 184:5 185:1 186:4 188:13 189:18 190:1 193:19 194:62 195:45 197:3 200:4 202:41 203:2 205:1 207:13 208:32 210:3 212:3 213:3 216:3 217:16 218:47 222:30 224:48 225:15 226:14 228:2 234:6 235:14 236:19 237:2 240:11 242:8 244:65 245:22 246:2 248:23 249:14 250:21 251:1 252:2 254:28 255:10 256:5 258:3 260:27 261:6 263:10 265:25 266:26 267:31 268:4 269:25 271:18 273:11 275:11 278:28 279:1 282:1 283:2 284:10 286:33 287:3 291:18 294:10 297:3 299:5 300:20 301:25 302:6 303:65 304:15 305:25 307:1 308:29 309:38 311:32 312:5 313:11 314:118 315:63 317:4 318:12 319:5 320:35 321:8 322:3 323:32 324:30 325:52 326:10 327:14 328:10 329:3 331:23 332:3 333:11 334:44 335:70 336:10 337:1 339:1 340:24 341:43 342:9 343:66 344:68 345:62 346:5 347:9 348:23 349:48 350:6 351:63 352:5522 353:111 354:15 355:6 356:15 358:21 359:6 361:6 362:19 363:18 365:279 366:2 367:14 369:5 370:95 372:10 373:15 374:6 375:16 376:19 377:8 378:6 379:26 380:15 381:8 384:6 385:24 386:12 387:17 388:38 389:18 390:18 391:93 392:27 393:16 394:56 395:1 397:56 398:1 399:17 400:28 402:31 403:8 404:16 405:25 406:7 408:37 409:13 410:17 411:34 412:46 413:192 415:10 416:15 417:1 418:13 419:11 420:15 421:36 422:9 423:9 424:23 425:8 426:14 427:37 428:139 429:7 430:11 431:303 432:125 434:21 435:25 436:23 437:7 438:17 439:3 440:52 442:14 443:10 444:13 445:9 446:40 447:10 448:14 449:23 450:9 
0.001915750018505429 0.003959685295669078 1:6 2:102 3:43 4:3 5:33 6:15 7:6 8:26 9:11 10:5 12:19 13:62 14:3 15:8 16:63 17:8 18:7 20:3 21:2 22:22 23:4 24:3 25:9 26:10 27:12 28:4 29:64 30:3 31:53 32:15 33:46 34:6 35:5 36:9 37:8 38:35 39:4 40:15 41:4 42:6 43:19 44:3 45:20 46:45 47:41 49:97 50:18 51:19 52:12 53:2 54:11 55:19 57:2 58:8 59:33 60:11 61:11 62:41 63:31 64:1 65:64 66:11 67:54 68:8 69:50 70:11 71:98 72:8 73:19 74:6 75:31 76:6 77:48 78:18 79:7 80:14 81:98 82:14 83:62 84:9 85:59 86:52 87:5 88:48 89:1 90:30 91:38 92:48 93:27 94:21 95:47 96:24 97:18 98:18 99:10 100:3 101:18 103:2 104:17 105:107 106:9 107:5 108:49 109:77 110:22 111:25 112:4 113:21 114:35 116:50 117:62 118:24 119:23 120:20 121:18 122:16 123:11 124:13 125:45 126:22 127:10 128:4 129:23 130:12 131:17 132:31 133:19 134:24 135:10 136:28 137:20 138:10 139:45 140:62 141:7 142:55 143:15 144:1 145:1 146:6 147:33 148:74 149:1 150:3 151:9 152:71 153:3 154:5 156:3 157:3 158:25 160:1 162:4 163:24 165:1 166:1 167:5 170:44 172:15 173:10 176:7 177:2 178:7 180:3 181:13 182:2 184:4 185:4 186:13 188:8 189:2 191:2 193:11 194:31 195:24 196:1 197:28 200:32 201:1 202:4 203:7 205:3 206:15 207:2 208:7 210:22 211:38 212:3 213:25 214:20 216:43 217:5 219:25 220:52 221:34 222:29 224:44 225:6 226:10 227:1 228:24 229:3 231:1 233:2 234:1 235:6 236:13 237:61 238:1 239:20 241:41 242:27 243:1 244:1 245:13 248:12 249:5 250:27 252:1 253:1 254:2 255:4 256:3 258:2 260:44 262:5 263:15 265:12 266:12 267:7 268:15 269:19 271:1 273:3 275:32 278:26 280:2 281:49 283:9 284:28 285:3 286:20 287:38 289:33 290:31 291:77 293:56 294:18 295:1 296:10 298:16 299:6 300:1 301:15 302:2 303:21 304:5 305:13 306:1 308:29 309:4 310:5 311:34 312:3 313:28 314:26 315:113 316:3 317:26 318:4 319:19 320:51 321:16 322:17 323:5 324:12 325:90 326:29 327:8 328:55 329:4 330:55 331:6 332:4 333:6 334:18 335:24 336:6 337:9 338:89 339:25 340:2 341:16 342:8 343:9 344:13 345:91 346:7 347:10 348:6 349:1 350:6 351:32 352:6351 353:25 354:10 356:19 357:79 358:16 359:2 361:4 362:1 363:8 364:24 365:45 366:11 367:1 368:35 369:8 370:31 371:34 372:10 373:12 374:1 375:2 376:16 377:23 378:15 379:86 380:1 381:4 382:3 383:26 384:33 385:15 386:4 387:18 388:19 389:70 390:50 391:27 392:1 393:17 394:53 395:65 396:9 397:66 398:40 399:20 400:15 402:15 403:18 404:4 405:9 406:8 407:118 408:14 409:2 411:14 412:11 413:34 414:9 415:15 416:14 417:13 418:40 419:25 420:8 421:14 422:6 423:5 424:10 426:39 427:6 428:48 429:38 430:6 431:73 432:17 433:5 434:37 435:45 436:4 437:27 438:5 439:2 440:372 441:69 442:11 443:6 444:13 445:7 446:59 447:7 448:106 449:3 450:40 
0 0.0002822770898307975 1:8 2:13 3:6 4:54 5:39 7:29 8:24 9:13 10:90 11:1 12:110 13:32 14:6 15:6 16:308 18:4 20:85 21:6 22:22 23:1 24:71 26:15 27:19 28:3 29:31 30:10 32:102 33:67 34:8 35:52 36:8 37:17 38:14 39:25 40:10 41:6 42:15 43:127 44:5 45:22 46:1 47:18 48:9 49:98 50:39 51:32 52:78 53:18 54:12 55:19 56:49 57:82 58:52 59:43 60:75 61:14 62:11 63:39 64:50 66:364 67:79 68:5 70:11 71:33 72:106 73:32 74:4 75:2 76:17 77:25 78:35 79:14 80:13 81:49 83:18 84:30 85:113 86:10 87:91 88:27 89:9 91:35 92:9 93:20 94:93 95:19 96:120 97:13 99:96 100:6 101:5 103:6 104:11 106:4 107:7 108:39 109:33 110:10 111:1 112:8 113:1 114:85 116:53 117:42 118:36 119:108 120:28 121:12 122:12 123:11 124:116 125:11 126:10 127:130 128:20 129:5 131:1 132:101 133:5 135:102 136:12 137:2 138:14 139:126 140:5 141:21 142:27 143:9 144:72 146:35 147:59 148:8 149:6 150:154 151:6 152:10 153:5 154:6 155:4 156:89 157:1 158:42 159:5 161:25 162:12 163:53 165:1 166:25 167:11 168:8 169:1 170:22 172:21 173:13 174:6 176:24 177:16 178:16 179:1 181:11 182:14 183:6 184:8 185:9 186:7 188:19 189:6 190:5 191:2 192:5 193:13 194:47 195:25 197:14 199:5 200:11 202:4 203:10 204:12 205:3 206:10 207:8 208:20 211:4 212:6 213:27 214:3 215:10 216:20 217:1 219:5 220:2 221:1 222:9 224:43 225:11 226:11 227:12 228:3 229:1 230:2 232:3 233:2 234:4 235:16 236:10 237:2 239:2 240:8 241:7 242:18 243:5 244:8 245:8 246:5 248:7 249:8 250:18 251:5 252:8 253:2 254:1 255:5 256:14 258:16 260:28 261:5 262:2 263:11 265:11 266:26 267:7 268:3 269:19 270:7 271:12 272:1 273:9 275:21 276:2 278:45 280:14 281:3 282:1 283:25 284:24 285:18 286:33 287:40 288:1 289:30 290:5 291:18 292:1 293:2 294:8 295:2 296:35 299:6 300:8 301:5 302:3 303:16 304:13 305:6 307:10 309:18 310:6 311:14 312:5 313:27 314:32 315:30 316:5 317:21 318:11 319:10 320:3 321:14 322:10 323:2 324:16 325:15 326:14 327:13 328:22 329:8 330:20 331:13 332:1 333:12 334:136 335:16 336:9 337:1 339:11 340:8 341:15 342:7 343:55 344:33 345:178 346:8 347:11 348:15 349:1 350:11 351:191 352:4113 353:203 354:6 355:3 356:20 357:45 358:26 359:3 360:1 361:7 362:3 363:15 364:16 365:240 366:8 367:8 368:123 369:13 370:80 371:5 372:13 373:15 374:5 375:9 376:19 377:15 378:13 379:4 380:7 381:8 382:8 383:111 384:40 385:30 386:12 387:16 388:54 390:25 391:2 392:4 393:10 395:8 396:4 397:118 398:222 399:18 400:11 402:23 403:8 404:10 405:21 406:5 407:89 408:18 409:13 410:11 411:19 412:15 413:42 414:9 415:11 416:15 417:30 418:31 419:13 420:12 421:8 422:15 423:8 424:179 426:12 427:33 428:10 429:16 430:12 431:167 432:55 433:7 434:19 435:27 436:11 437:13 438:7 439:1 440:217 441:10 442:7 443:8 444:12 445:8 446:170 447:7 448:16 449:4 450:18 
0.001197178963733327 0 1:11 2:151 3:5 7:22 8:33 9:9 11:1 12:157 14:14 15:3 16:39 18:12 21:2 22:22 23:1 24:32 25:22 26:29 27:4 29:21 30:15 32:4 33:158 34:14 35:41 36:10 37:12 38:2 39:89 40:9 41:8 42:16 43:3 44:5 45:26 50:3 51:17 52:20 53:8 54:10 55:25 56:32 58:102 59:28 60:2 61:17 62:8 63:14 64:88 65:13 66:12 67:14 68:11 69:102 70:11 71:95 72:2 73:4 74:6 75:7 76:7 77:15 78:32 79:36 80:31 81:34 82:1 83:218 84:10 86:13 87:4 88:27 89:7 91:30 92:33 93:15 95:30 98:8 99:5 100:9 101:12 102:1 103:5 104:12 106:1 107:16 110:15 111:1 112:11 114:19 115:39 116:41 118:36 119:1 120:2 121:13 122:13 123:1 124:12 126:16 127:214 128:9 131:31 132:134 133:5 135:37 138:12 139:3 141:4 143:11 146:10 147:4 149:6 150:118 151:1 152:15 153:9 154:11 155:2 156:6 158:11 159:9 161:1 162:1371 163:33 166:55 168:1 170:14 172:1 173:31 176:17 178:34 181:30 182:9 184:8 185:8 186:5 188:17 189:4 193:7 194:45 195:59 196:59 197:15 200:13 202:4 203:11 205:1 206:6 207:5 208:21 210:1 212:2 213:29 215:2 216:39 217:8 218:1 222:18 224:33 225:2 226:15 228:4 230:12 233:8 234:9 235:8 236:12 239:15 240:5 241:86 242:2 243:2 244:6 245:27 246:2 247:1 248:15 249:17 250:15 251:3 252:7 255:8 256:10 259:1 260:38 261:6 262:3 263:12 265:18 266:15 267:16 268:4 269:64 270:4 271:5 273:6 274:1 275:6 278:61 280:1 283:4 284:33 286:30 287:33 289:21 291:27 293:1 294:20 297:1 299:7 300:10 301:103 302:3 303:4 304:11 305:14 308:70 309:8 310:7 311:4 312:3 313:11 314:19 315:175 316:5 317:15 318:4 320:86 321:11 322:4 323:10 324:23 325:38 326:8 327:19 328:28 329:7 330:5 331:14 332:3 333:5 334:25 335:12 336:10 340:12 341:4 342:4 344:5 345:315 346:9 347:7 348:11 349:2 350:5 351:25 352:5006 353:9 354:3 356:34 357:28 358:23 361:3 362:1 363:10 365:226 367:3 369:16 370:17 372:25 373:9 375:92 376:14 377:5 378:4 379:145 380:10 381:4 382:1 383:7 385:17 386:6 387:10 388:14 389:17 390:35 391:7 392:1 393:7 394:19 395:133 396:1 397:32 398:4 399:6 400:27 402:2 403:11 404:5 405:30 406:2 407:169 408:30 409:1 410:3 411:26 412:18 413:129 414:5 415:13 416:55 418:19 419:7 420:12 421:14 422:7 423:9 424:14 425:3 426:23 427:7 428:27 429:25 430:18 431:178 432:120 433:1 434:10 435:35 436:13 437:18 438:9 439:1 440:702 441:8 442:6 444:16 445:2 446:29 447:5 448:159 449:7 450:28 
0 0.0002833866786287832 1:16 2:30 3:42 4:2 5:1 6:10 7:16 8:44 9:26 10:3 11:24 12:244 13:1 14:25 15:37 16:215 17:68 18:12 19:1 20:131 21:11 22:24 23:46 24:56 25:50 26:21 27:52 28:9 29:85 30:23 31:21 32:41 33:66 34:23 35:41 36:15 37:17 38:77 39:23 40:20 41:13 42:13 43:58 44:6 45:24 46:2 47:22 48:36 49:1 50:87 51:35 52:7 53:17 54:51 55:14 56:94 57:200 58:67 59:35 60:2 61:22 62:3 63:32 64:22 65:26 66:156 67:4 68:16 69:143 70:23 71:47 72:58 73:29 74:23 75:39 76:7 77:97 78:41 79:14 80:27 81:51 82:8 83:86 84:49 85:38 86:28 88:48 89:10 90:26 91:26 92:90 93:10 94:4 95:15 96:61 98:85 99:102 100:15 101:39 102:22 103:21 104:25 105:15 106:5 107:55 108:54 109:24 110:49 111:2 112:26 114:8 115:51 116:40 117:5 118:22 119:2 120:57 121:16 122:33 123:3 124:26 125:5 126:51 127:33 128:12 129:64 130:7 131:83 132:20 133:2 134:7 135:123 136:1 137:37 138:18 139:16 140:53 141:17 142:39 143:20 144:110 145:1 146:37 147:104 148:3 149:25 150:65 151:6 152:16 153:38 154:5 155:10 156:143 157:11 158:67 159:7 160:2 161:116 162:1 163:29 164:2 165:4 166:67 167:1 168:6 170:3 171:7 172:3 173:13 174:1 175:11 176:94 177:5 178:22 179:2 181:20 182:6 183:62 184:13 185:6 186:7 187:20 188:13 189:11 190:32 191:1 192:1 193:4 194:16 195:43 196:174 197:6 198:3 199:8 200:12 201:4 202:34 203:11 204:1 205:19 206:4 207:9 208:49 209:5 210:5 211:32 212:8 213:23 214:32 215:9 216:15 217:6 218:53 219:32 220:22 221:16 222:20 223:14 224:61 225:30 226:11 227:1 228:5 229:6 230:39 231:3 232:1 233:7 234:20 235:22 236:30 237:23 238:10 239:6 241:33 242:10 243:2 244:50 245:88 246:10 247:15 248:33 249:12 250:34 251:1 252:13 253:2 254:40 255:5 256:21 257:5 258:33 259:3 260:27 261:9 262:19 263:11 264:4 265:21 266:129 267:27 268:27 269:52 270:2 271:10 273:23 274:1 275:4 276:13 277:3 278:26 279:1 281:29 282:1 283:42 284:10 285:3 286:34 287:24 288:1 289:21 290:11 291:26 292:15 293:14 294:19 295:2 296:2 297:7 298:28 299:9 300:15 301:63 302:6 304:20 305:28 306:1 307:39 308:8 309:27 310:5 311:58 312:10 313:37 314:138 315:113 316:1 317:20 318:12 319:11 320:36 321:15 322:1 323:39 324:23 325:40 326:13 327:21 328:38 329:5 330:6 331:23 332:3 333:6 334:88 335:37 336:7 337:2 338:43 339:8 340:29 341:43 342:1 343:11 344:9 345:93 346:5 347:3 348:13 349:50 350:3 351:51 352:1998 353:41 354:9 355:4 356:33 357:64 358:18 359:16 360:2 361:13 362:5 363:10 364:25 365:184 366:10 367:14 368:10 369:20 370:58 372:9 373:18 374:9 375:43 376:18 377:11 378:7 379:37 380:16 381:11 382:2 383:169 384:7 385:37 386:7 387:9 388:34 389:55 390:25 391:37 392:14 393:11 394:29 395:58 396:7 397:7 398:197 399:16 400:38 401:2 402:17 403:11 404:28 405:17 406:4 407:121 408:27 409:15 410:17 411:20 412:32 413:124 414:5 415:6 416:32 417:17 418:20 419:9 420:17 421:47 422:10 423:9 424:33 425:60 426:25 427:36 428:84 429:25 430:25 431:111 432:133 433:5 434:18 435:49 436:12 437:24 438:13 439:8 440:186 441:41 442:7 443:25 444:13 445:6 446:66 447:16 448:37 449:30 450:33 
0 0.0002370719758993836 1:12 2:38 4:171 6:4 7:1 8:47 9:41 10:81 11:85 12:197 14:8 15:28 16:73 17:30 18:20 20:99 21:21 22:9 23:31 24:2 25:3 26:15 27:18 28:47 29:9 30:27 32:49 33:14 34:18 35:8 36:11 37:6 38:75 39:155 40:25 41:11 42:27 43:16 44:1 45:15 46:1 48:52 49:91 50:22 51:20 52:3 53:9 54:39 55:17 56:192 57:323 58:281 59:15 60:51 61:5 63:26 64:220 65:75 66:62 67:9 68:26 69:95 70:46 71:57 72:3 74:44 75:51 76:6 77:19 78:4 79:11 80:32 81:26 82:14 83:206 84:36 85:26 87:91 88:47 89:17 91:14 92:56 93:3 94:24 95:8 97:5 99:15 100:10 101:33 102:20 103:24 104:33 107:17 108:12 110:47 112:25 114:26 115:149 116:141 117:3 118:11 120:42 121:1 122:5 123:21 124:43 126:45 127:127 128:9 129:133 131:2 132:13 134:43 135:2 138:19 139:12 140:2 141:21 143:14 144:153 145:2 146:40 147:9 149:18 150:58 151:2 152:3 153:19 154:19 155:9 156:98 157:2 158:69 159:6 161:116 162:7 163:19 165:2 166:183 168:1 170:13 172:6 173:23 175:5 176:9 178:35 181:49 182:13 183:107 184:1 185:4 186:3 187:1 188:10 189:17 190:77 191:2 193:9 194:29 195:35 196:1449 197:9 198:3 200:16 201:4 202:11 203:3 204:2 205:1 206:11 207:1 208:113 209:4 210:1 213:2 214:3 216:6 217:26 218:25 219:2 220:1 222:14 223:4 224:85 225:11 226:5 227:3 228:2 230:4 233:7 234:60 235:18 236:50 238:48 240:1 241:97 242:8 244:32 245:6 246:3 247:9 248:36 249:9 250:7 251:3 252:4 254:7 255:9 256:13 258:3 259:53 260:13 261:13 262:4 263:13 265:11 266:121 267:180 268:3 269:126 270:1 271:13 272:1 273:5 275:2 277:2 278:13 279:2 280:1 282:7 283:17 284:5 286:16 287:17 288:2 289:19 290:1 291:17 293:1 294:70 295:1 296:9 297:34 299:5 300:13 301:26 302:21 304:48 305:16 308:21 309:56 310:4 311:31 312:18 313:7 314:235 315:110 316:3 317:4 318:2 319:27 320:52 321:4 322:2 323:19 324:15 325:87 326:10 327:6 328:14 329:8 330:96 331:11 332:6 333:3 334:259 335:23 336:1 337:1 338:3 339:12 340:10 341:6 342:2 344:6 345:166 346:1 347:2 348:34 349:129 350:10 351:59 352:1436 353:45 354:14 355:19 356:12 357:56 358:13 359:3 361:55 362:17 363:11 364:9 365:6 366:29 367:27 368:56 370:26 372:12 373:8 374:29 375:52 376:11 377:9 379:93 380:23 381:5 382:18 383:103 384:2 385:14 386:7 387:14 388:39 389:67 390:12 391:22 392:35 393:1 394:57 395:100 396:1 397:17 398:75 399:16 400:27 402:41 403:1 404:12 405:21 407:41 408:24 409:17 410:20 411:37 412:58 413:8 415:1 416:20 417:1 418:14 419:5 420:11 421:35 422:4 423:5 424:75 425:88 426:14 427:59 428:17 429:10 430:7 431:10 432:2 433:1 434:15 435:20 436:22 437:6 438:8 439:31 440:278 442:5 443:3 444:7 445:6 446:101 447:6 448:54 449:9 450:17 
0.001660261574987182 0.001472587176653595 1:16 2:34 3:65 4:2 5:4 6:2 8:43 9:40 11:6 12:111 13:1 14:17 15:8 16:54 17:5 18:20 20:32 21:17 22:28 23:8 24:3 26:29 27:21 28:28 29:1 30:33 31:5 32:46 33:9 34:16 35:67 36:15 37:26 38:27 39:13 40:32 41:20 42:21 44:4 45:11 47:3 48:3 50:3 51:26 53:15 54:41 55:11 57:72 58:72 59:66 60:10 61:27 62:4 63:2 64:10 65:1 66:27 67:67 68:27 69:72 70:1 71:152 72:83 73:7 74:14 75:187 76:8 77:2 78:3 79:29 80:39 81:46 82:29 83:22 84:48 85:4 86:23 87:1 88:57 89:24 90:2 91:24 92:114 93:16 95:35 96:121 98:3 99:109 100:29 101:162 102:131 103:4 104:31 106:9 107:35 110:45 111:1 112:4 115:59 116:27 117:3 118:19 120:47 121:17 122:13 123:4 124:31 125:5 126:29 127:67 128:15 129:41 131:5 132:10 133:12 134:106 135:61 136:1 137:3 138:5 139:1 141:9 142:2 143:24 144:11 145:1 146:15 148:1 149:30 150:24 151:2 152:7 153:27 154:15 155:1 156:44 158:35 159:6 161:12 162:22 166:2 167:4 168:1 169:4 170:2 173:24 176:3 178:32 179:1 180:1 181:39 182:3 183:10 184:8 185:8 186:8 188:13 189:27 190:54 193:5 194:32 195:65 196:24 197:14 200:16 202:16 203:12 205:1 206:2 207:17 208:12 211:1 212:8 213:27 215:3 216:25 217:39 218:26 222:50 224:42 225:8 226:14 227:1 229:2 234:16 235:32 236:18 237:4 238:9 239:1 240:3 242:3 243:1 244:84 245:25 246:7 247:2 248:35 249:22 250:13 252:9 254:11 255:9 256:10 257:2 258:15 260:10 261:11 262:6 263:8 265:16 266:85 267:153 268:2 269:11 270:3 271:10 272:5 273:15 275:2 277:2 278:24 279:2 280:3 281:1 282:5 283:17 284:23 285:3 286:30 287:29 288:5 290:7 291:28 293:3 294:77 295:1 297:7 299:7 300:19 301:3 302:4 303:20 304:3 305:40 307:2 308:4 309:8 310:11 311:25 312:1 313:20 314:73 315:14 316:4 317:20 318:8 319:9 320:37 321:23 323:25 324:11 325:17 326:7 327:23 328:16 329:13 331:14 332:2 333:7 334:19 335:13 336:4 339:6 340:9 341:11 342:2 343:74 344:15 345:91 346:6 347:16 348:9 349:49 350:9 351:31 352:6594 353:44 354:20 355:2 356:31 357:20 358:12 359:3 361:6 362:4 363:20 364:3 365:168 366:1 367:7 369:22 370:85 372:28 373:15 374:5 375:3 376:22 377:10 378:4 379:10 380:22 381:16 382:3 383:34 384:4 385:28 386:15 387:23 388:16 390:34 391:15 392:3 393:6 394:43 395:2 396:6 398:53 399:11 400:45 401:2 402:8 403:6 404:22 405:28 406:2 407:25 408:18 409:15 410:6 411:27 412:22 413:1 414:2 415:6 416:36 417:4 418:17 419:16 420:19 421:16 422:7 423:7 424:11 425:8 426:19 427:14 428:3 429:14 430:29 431:168 432:8 433:1 434:20 435:10 436:21 437:13 438:22 439:2 440:100 441:67 442:19 443:24 444:16 445:3 446:126 447:24 448:9 449:15 450:16 
0 0.0005766668061491554 1:20 2:19 3:16 4:8 5:69 7:4 8:40 9:22 10:108 12:35 13:13 14:19 15:10 16:217 17:1 18:25 20:16 21:7 22:17 23:1 24:56 25:2 26:24 27:8 28:26 29:1 30:24 31:16 32:86 33:98 34:18 35:75 36:11 37:15 38:10 39:8 40:11 41:9 42:32 43:99 44:4 45:4 46:12 48:5 49:59 51:14 52:60 53:22 54:21 55:6 56:14 57:16 58:9 59:124 60:22 61:16 63:73 64:7 65:6 66:136 67:1 68:20 69:12 70:19 71:15 72:24 73:88 74:14 75:18 76:9 78:17 79:27 80:41 81:30 82:51 83:24 84:15 85:30 86:1 87:64 88:25 89:16 91:22 92:12 93:12 94:16 95:28 96:11 97:41 98:35 100:7 101:21 102:5 103:11 104:19 106:6 107:22 108:12 109:1 110:37 112:21 114:11 115:4 116:105 118:20 119:85 120:93 121:5 122:4 123:3 124:6 126:17 127:27 128:13 129:8 130:18 131:26 132:130 133:3 134:16 135:26 137:39 138:12 139:145 141:10 142:3 143:22 144:17 146:16 147:128 148:33 149:7 150:37 151:1 152:13 153:27 154:10 155:1 156:19 157:2 158:3 159:1 161:5 163:27 165:11 167:1 172:3 173:33 176:45 178:41 179:1 180:1 181:45 182:20 183:16 184:7 185:3 186:4 188:21 189:13 190:17 193:4 194:29 195:11 197:5 200:7 202:1 203:5 206:1 207:10 208:77 210:13 213:16 216:17 217:11 218:2 221:3 222:15 224:67 225:14 226:12 228:2 230:7 233:4 234:11 235:8 236:16 238:17 239:1 240:3 241:9 242:2 243:2 244:27 245:33 248:42 249:17 250:4 252:3 254:2 255:9 256:3 260:19 261:9 262:3 263:13 265:27 266:33 267:48 268:8 271:17 273:5 275:5 278:25 279:2 282:2 283:13 284:17 286:19 287:39 289:49 290:1 291:25 293:4 294:49 296:84 299:6 300:11 301:24 302:4 304:31 305:21 307:1 308:30 309:42 310:6 311:9 312:8 314:38 315:45 316:2 317:11 318:7 319:19 320:2 321:11 322:2 323:26 324:23 325:57 326:8 327:10 328:4 329:5 330:25 331:17 332:6 333:7 334:66 335:9 336:11 337:8 338:15 339:21 340:1 341:12 342:4 344:20 345:153 346:12 347:13 348:18 349:6 350:2 351:18 352:6564 353:86 354:9 355:4 356:29 358:21 359:5 361:21 362:3 363:9 364:53 365:189 366:1 367:12 368:73 369:10 370:42 371:20 372:28 373:16 374:6 375:10 376:10 377:4 379:20 380:21 381:9 382:1 383:12 384:9 385:13 386:9 387:14 388:11 389:41 390:14 391:94 392:8 393:7 394:8 395:15 396:3 397:41 398:72 399:5 400:33 402:13 403:3 404:3 405:16 406:1 407:67 408:26 409:5 410:3 411:40 412:27 413:124 414:6 415:3 416:43 417:8 418:14 419:11 420:9 421:30 422:4 423:4 424:7 425:5 426:13 427:35 428:9 429:3 430:17 431:227 432:50 433:7 434:24 435:8 436:16 437:14 438:8 439:7 440:102 441:3 442:11 443:5 444:12 445:6 446:69 447:8 448:34 449:11 450:2 
0.0001688829297410511 0.001909060641844213 1:8 2:189 4:11 5:6 6:1 7:7 8:55 9:21 10:49 11:10 12:189 13:22 14:3 15:23 16:109 18:28 21:8 22:23 23:2 25:10 26:6 27:4 28:13 29:76 30:18 33:55 34:9 35:75 36:19 37:11 38:34 39:27 40:12 42:45 43:24 44:2 45:14 48:1 49:29 50:11 51:22 52:11 53:19 54:34 55:8 56:12 57:22 58:57 59:144 60:1 61:10 63:171 64:22 65:89 66:39 68:27 69:61 70:9 71:17 72:2 74:8 75:11 76:12 77:57 78:9 79:46 80:56 81:5 82:30 83:23 84:39 85:13 86:9 87:6 88:18 89:11 91:22 92:57 93:1 95:22 96:1 98:30 99:15 100:3 101:37 102:1 103:4 104:22 107:46 108:3 110:30 111:1 112:6 113:8 115:12 116:66 118:22 119:90 120:9 121:5 122:12 123:9 124:1 126:23 127:65 128:12 129:58 132:54 133:2 137:25 138:8 139:5 140:4 141:8 143:15 144:65 146:34 147:116 149:12 150:52 152:16 153:15 154:15 156:35 158:111 159:5 160:1 161:17 162:2 163:89 166:25 167:6 172:8 173:30 174:4 176:54 177:12 178:35 181:45 182:10 184:2 185:8 186:13 188:22 189:2 193:9 194:110 195:28 197:6 200:6 202:14 203:14 205:13 207:11 208:46 209:2 211:12 212:1 213:19 214:10 215:16 216:14 217:15 218:20 219:6 220:1 222:11 224:47 225:11 226:16 227:9 228:1 229:3 233:4 234:22 235:15 236:19 237:5 240:14 241:38 242:6 244:14 245:1 248:35 249:5 250:5 252:9 254:3 255:5 258:9 259:1 260:35 261:7 262:8 263:17 265:26 266:20 267:27 268:5 269:20 270:23 271:11 273:29 275:1 278:10 280:5 281:7 282:1 283:8 284:17 285:6 286:30 287:26 288:2 289:68 290:12 291:14 293:5 294:10 296:48 298:3 299:10 300:12 301:192 304:3 305:17 307:8 308:126 309:11 310:7 311:1 312:3 313:20 314:8 315:22 316:1 317:12 318:3 319:1 320:182 321:17 323:26 324:45 326:5 327:8 328:14 329:3 330:112 331:18 332:1 333:5 334:17 335:19 336:1 338:1 339:4 340:14 341:5 345:311 346:7 347:12 348:7 349:11 350:1 351:1 352:6329 354:11 356:16 358:41 359:3 363:4 364:30 365:11 366:1 367:3 368:44 369:12 370:26 372:20 373:15 374:1 375:180 376:13 377:7 378:4 379:95 380:18 381:5 382:2 383:67 384:3 385:36 386:5 387:3 388:20 390:9 391:1 393:2 394:11 395:92 396:4 398:253 399:8 400:44 402:3 403:1 404:15 405:19 406:3 407:128 408:31 409:7 411:41 412:4 414:2 416:31 418:8 419:11 420:15 421:33 422:4 423:3 424:2 425:9 426:14 427:6 429:15 430:10 431:96 432:1 433:3 434:17 435:14 436:23 437:11 438:13 439:1 440:392 442:12 443:10 444:17 445:1 446:61 447:13 448:5 449:17 450:8 
0 0.0004089199516388794 1:7 2:127 3:10 4:2 5:3 6:42 7:88 8:30 9:19 10:16 11:34 12:255 14:11 15:14 16:122 18:10 20:89 21:2 22:8 23:91 24:9 25:62 26:16 27:23 28:12 30:12 33:71 34:17 35:9 36:4 37:4 38:22 39:30 40:12 41:6 42:6 43:41 44:2 45:10 46:2 48:18 49:69 51:18 52:76 53:8 54:20 55:22 56:32 57:34 58:21 59:36 60:5 61:10 63:45 64:16 65:15 66:107 67:13 68:16 69:61 70:25 71:20 72:51 73:58 74:14 75:13 76:1 78:16 79:13 80:31 81:61 82:10 83:27 84:20 85:1 86:4 87:83 88:87 89:1 91:19 92:13 94:70 95:14 96:69 97:7 98:51 99:62 100:5 101:76 103:27 104:8 106:1 107:27 108:77 110:20 112:23 116:41 117:1 118:25 119:117 120:75 121:4 122:15 123:27 124:7 126:24 127:37 128:7 129:16 131:2 132:7 133:35 134:11 135:35 136:41 137:74 138:14 139:1 140:4 141:43 142:100 143:8 144:22 145:1 146:15 147:87 148:7 149:11 150:50 151:4 152:5 153:17 154:2 158:2 159:7 161:12 162:7 163:61 164:8 165:2 166:8 167:1 170:1 172:7 173:17 174:3 176:41 177:6 178:11 180:21 181:21 182:7 183:17 184:3 185:3 186:2 188:8 189:1 190:6 191:3 193:6 194:17 195:14 199:11 200:4 202:6 203:1 204:1 205:1 207:7 208:45 212:2 213:8 215:1 216:15 217:4 218:2 221:1 222:8 224:52 225:4 226:16 227:1 229:1 230:7 231:2 233:9 234:2 235:13 236:14 237:1 238:11 239:3 240:2 241:23 242:13 244:6 245:35 247:2 248:13 249:10 250:8 251:3 252:6 254:28 255:9 256:3 260:12 261:3 262:3 263:5 265:10 266:89 267:7 268:1 269:6 270:2 271:3 273:3 275:7 278:55 280:2 283:8 284:15 286:23 287:42 289:1 290:1 291:11 292:4 293:3 294:28 295:1 296:3 299:6 300:5 301:69 302:22 303:34 304:40 305:16 307:32 308:109 309:44 310:1 311:17 312:34 313:6 314:70 315:101 317:7 318:3 319:12 320:174 321:7 322:1 323:12 324:6 325:86 326:5 327:9 328:7 329:7 330:24 331:3 332:11 333:2 334:33 335:22 336:1 337:4 339:1 340:8 341:63 342:1 343:51 344:40 345:172 346:4 347:6 348:29 350:9 352:6136 354:8 355:14 356:16 357:22 358:3 359:1 361:54 362:22 363:3 364:5 365:60 366:12 367:28 368:61 369:6 370:36 372:7 373:2 374:33 375:105 376:5 377:12 378:59 379:29 380:6 381:7 382:8 383:84 384:39 385:21 386:7 387:5 388:45 389:71 390:13 391:1 392:28 393:4 394:6 395:16 396:6 398:141 399:14 400:10 402:23 403:1 404:8 405:10 406:1 407:63 408:5 409:6 410:16 411:8 412:45 413:41 414:3 415:2 416:13 417:60 418:8 419:6 420:1 421:4 422:9 423:8 424:11 425:3 426:6 427:53 428:16 429:3 430:11 431:179 432:5 433:5 434:10 435:7 436:5 437:13 438:5 439:25 440:399 441:18 442:4 443:4 444:4 445:1 446:39 447:11 448:65 449:7 450:8 
0.0001637549093320147 0 1:14 2:59 4:73 7:19 8:57 9:23 10:6 11:9 12:76 13:2 14:15 15:12 16:55 17:2 18:29 21:6 22:17 25:33 26:30 27:72 28:5 29:4 30:16 31:3 33:29 34:19 35:6 36:14 37:15 38:64 39:177 40:14 41:6 42:27 43:34 44:9 45:33 46:21 48:5 50:7 51:16 52:32 53:2 54:21 55:25 56:285 57:12 58:311 59:33 60:2 61:29 62:15 63:8 64:175 65:40 66:22 68:11 69:2 70:8 71:52 74:12 75:52 76:10 77:8 78:30 79:26 80:57 81:57 82:71 83:222 84:26 85:8 86:4 87:55 88:40 89:2 91:17 92:128 93:7 94:40 95:2 96:5 97:4 98:3 99:2 100:8 101:138 102:4 103:8 104:14 105:1 107:18 108:1 110:36 111:14 114:1 115:4 116:120 118:40 119:33 120:49 121:8 122:37 123:1 125:2 126:31 127:148 128:4 129:77 130:44 134:20 138:15 139:6 140:1 141:2 142:18 143:19 144:175 145:1 146:16 147:41 149:5 150:2 151:4 152:7 153:24 154:7 155:2 156:199 158:98 159:20 161:1 162:41 163:9 164:1 165:18 166:153 167:7 168:1 169:1 170:1 172:1 173:32 174:1 176:13 177:2 178:15 179:1 180:47 181:33 182:19 183:3 184:3 185:3 186:1 188:26 189:2 190:36 194:70 195:103 196:41 197:16 200:8 202:20 203:12 204:13 207:13 208:130 209:1 210:14 211:1 212:5 213:29 214:15 215:2 216:20 217:13 218:15 221:12 222:92 224:72 225:13 226:12 227:7 229:2 230:38 231:110 233:47 234:13 235:13 236:16 238:30 239:2 240:13 241:283 242:19 244:45 245:71 246:2 247:3 248:61 249:17 250:42 251:3 252:7 254:4 255:12 256:6 259:2 260:54 261:3 262:1 263:8 265:40 266:104 267:76 268:2 269:95 270:3 271:8 272:1 273:10 277:1 278:1 279:1 280:6 283:1 284:27 285:1 286:39 287:20 289:4 290:4 291:10 294:81 297:1 298:3 299:14 300:3 301:39 302:1 305:32 307:6 308:32 309:3 310:3 311:50 312:3 313:12 314:32 315:24 316:7 317:29 318:5 320:1 321:20 322:5 323:51 324:28 325:27 326:3 327:23 328:24 329:2 331:9 332:1 333:3 334:230 335:109 336:4 337:30 338:13 339:1 340:17 341:2 345:55 346:4 347:10 348:6 349:10 350:2 352:5189 354:2 356:37 357:3 358:29 359:2 360:1 362:1 363:4 364:3 365:3 366:3 367:1 369:20 370:75 372:36 373:7 375:118 376:8 377:5 378:13 379:65 380:11 381:5 384:4 385:22 386:2 387:4 388:10 389:4 390:22 392:1 393:5 394:19 395:22 398:4 399:5 400:53 401:1 402:1 403:5 404:11 405:7 406:5 408:16 410:10 411:25 412:19 414:3 415:5 416:43 417:7 418:19 419:5 420:6 421:56 422:8 423:4 425:10 426:16 427:2 429:22 430:21 431:27 433:2 434:7 435:85 436:8 437:16 438:16 439:2 440:335 442:11 443:7 444:23 445:3 446:89 447:12 448:14 449:7 450:20 
0 8.39967768168089e-05 1:23 2:13 3:2 4:8 5:10 6:15 7:23 8:26 9:31 10:88 11:5 12:10 13:3 14:13 15:22 16:141 17:3 18:10 20:16 21:2 22:38 23:31 24:7 25:128 26:10 27:158 28:65 29:89 30:14 31:14 32:79 33:111 34:24 35:99 36:20 37:24 38:103 39:18 40:12 41:19 42:8 43:76 44:16 45:26 46:7 47:6 48:24 50:122 51:39 52:99 53:9 54:29 55:30 56:59 57:100 58:16 59:83 61:39 62:5 63:105 64:21 65:6 66:211 67:15 68:20 69:113 70:20 71:5 72:13 73:87 74:12 75:121 76:24 77:163 78:3 79:17 80:26 81:97 82:4 83:2 84:41 85:53 86:12 87:66 88:80 89:24 90:44 91:45 92:101 93:43 94:77 95:23 96:36 97:215 98:149 99:62 100:26 101:8 102:73 103:4 104:16 105:7 106:14 107:18 108:230 109:5 110:18 112:3 114:3 115:2 116:110 117:22 118:38 119:179 120:222 121:5 122:10 123:9 124:5 125:6 126:10 127:8 128:8 129:6 130:1 131:37 132:52 133:47 134:234 136:33 137:33 138:16 139:25 140:38 141:6 142:75 143:11 144:108 145:11 146:37 147:44 148:4 149:10 150:6 151:18 152:65 153:11 154:15 155:31 156:5 157:17 158:21 159:6 161:137 162:5 163:46 164:15 165:9 166:175 167:2 168:42 169:1 170:1 171:7 172:6 173:26 174:21 175:2 176:60 177:27 178:35 180:18 181:19 182:4 183:142 184:27 185:6 186:17 187:21 188:43 189:11 190:188 191:14 192:3 193:8 194:3 195:27 196:7 197:20 198:14 199:60 200:46 201:15 202:10 203:10 204:44 205:6 206:1 207:7 208:5 211:15 212:30 213:31 214:55 215:3 216:22 217:20 218:16 219:45 220:21 221:5 222:2 223:4 224:15 225:8 226:29 227:8 228:9 229:2 230:1 231:51 233:175 234:4 235:30 236:20 237:1 238:214 239:14 240:4 241:185 242:15 243:5 244:183 245:36 246:51 247:6 248:3 249:13 250:23 251:20 252:2 253:84 254:1 255:5 256:5 257:9 258:18 259:4 260:11 261:1 262:7 263:10 264:28 265:7 266:99 267:62 268:56 269:8 270:3 271:7 272:1 273:10 275:10 276:17 277:6 278:12 279:3 280:1 281:18 284:28 285:19 286:39 287:42 288:2 289:83 290:5 291:118 292:17 293:62 294:2 295:2 296:66 297:2 298:90 299:11 300:5 301:73 304:5 305:34 307:116 308:69 309:5 310:18 311:6 312:15 313:36 314:2 315:23 316:4 317:24 318:17 319:4 321:27 322:17 323:20 324:20 325:104 326:34 327:35 328:36 329:18 330:9 331:20 332:5 333:24 334:16 335:10 336:10 337:9 338:5 339:6 340:8 341:39 342:14 344:4 346:8 347:17 348:3 349:23 350:1 351:3 352:1584 353:79 354:17 356:57 357:8 358:19 359:13 360:1 361:10 362:4 363:39 364:13 365:128 366:10 367:5 368:6 369:32 370:6 371:16 372:13 373:28 374:6 376:39 377:18 378:11 379:6 380:15 381:24 382:7 383:1 384:8 385:29 386:37 387:46 388:43 389:1 390:38 391:104 392:2 393:18 394:9 395:89 396:18 397:1 398:14 399:11 400:11 401:3 402:8 403:14 404:10 405:29 406:9 407:1 408:16 409:5 410:7 411:16 412:13 413:18 414:22 415:10 416:95 417:12 418:18 419:23 420:27 421:18 422:17 423:14 424:8 425:2 426:31 427:17 428:2 429:19 430:37 431:74 432:20 433:7 434:59 435:9 436:4 437:18 438:6 439:7 440:18 441:8 442:26 443:8 444:16 445:14 446:23 447:23 448:88 449:3 450:24 
0 0.0009912089688048872 1:3 2:104 3:10 4:13 5:2 7:19 8:71 9:12 10:57 11:26 12:217 13:10 14:11 15:41 16:161 17:46 18:2 20:130 21:2 22:4 23:40 24:28 25:19 26:6 27:30 28:3 29:45 30:3 31:16 32:1 33:88 34:11 35:10 36:3 37:2 38:82 39:10 40:9 41:5 42:17 43:64 45:5 46:34 47:22 48:15 49:285 50:56 51:14 52:48 53:1 54:26 55:3 56:267 57:8 58:7 59:6 60:5 61:4 63:6 64:9 65:93 66:138 68:10 69:5 70:13 71:12 72:24 73:9 74:27 75:9 76:19 77:53 78:3 79:10 80:33 81:6 83:114 84:26 85:9 86:16 87:71 88:4 89:8 90:7 91:14 92:20 93:7 94:59 95:5 96:54 97:70 98:29 99:62 100:4 101:1 102:7 103:4 104:11 105:113 106:6 107:28 108:16 109:45 110:26 112:5 114:10 116:61 117:40 118:13 119:59 120:65 121:2 122:4 123:29 124:25 125:22 126:40 127:122 128:2 129:46 130:8 131:17 132:27 134:3 135:55 136:4 137:41 138:10 139:7 140:13 141:11 142:23 143:6 144:25 146:22 147:147 148:23 149:2 150:286 152:9 153:9 154:1 156:19 157:4 158:21 159:2 160:3 161:12 162:14 163:33 164:6 165:8 166:109 170:22 173:7 174:12 175:2 176:51 177:2 178:22 180:6 181:21 182:14 183:61 184:2 185:1 186:6 187:5 188:13 189:3 190:30 191:2 194:11 195:18 196:78 197:9 198:14 199:13 200:9 202:11 204:16 205:9 206:1 207:2 208:16 210:1 211:5 212:1 213:9 214:13 216:8 217:14 218:2 219:7 220:1 221:11 223:7 224:52 225:37 226:21 227:1 228:5 230:17 231:3 233:23 234:20 235:5 236:24 237:8 238:3 239:9 240:3 241:221 242:18 243:1 244:11 245:24 246:2 248:25 249:1 250:4 251:8 252:1 254:17 256:2 257:2 258:6 260:35 261:1 262:11 263:11 264:17 265:13 266:21 268:6 269:2 271:2 273:2 275:6 276:10 277:2 278:30 281:4 282:1 283:8 284:4 285:2 286:18 287:45 290:11 291:7 292:3 293:4 294:16 296:14 298:18 299:1 300:1 301:90 302:10 303:1 304:22 305:9 307:106 308:90 309:25 310:1 311:7 312:12 313:12 314:30 315:166 316:1 317:5 319:10 320:96 322:4 324:15 325:105 326:8 327:6 328:2 329:6 330:285 331:6 332:9 333:6 334:200 335:21 336:2 337:5 338:1 340:3 341:16 342:1 343:23 344:5 345:159 346:1 347:7 348:8 350:3 351:21 352:5127 354:3 355:4 356:7 357:7 358:6 359:5 361:20 362:9 363:3 364:12 365:15 366:8 367:11 368:135 369:4 370:1 371:1 372:5 373:1 374:9 375:3 376:5 377:1 378:3 379:45 380:4 381:5 383:28 384:1 385:15 386:4 387:8 388:25 389:2 390:11 391:4 392:14 393:2 394:8 395:109 396:8 397:40 398:44 399:1 400:24 402:31 403:2 404:3 405:7 406:2 407:25 408:9 409:4 410:13 411:9 412:18 413:14 414:3 415:3 416:10 417:25 418:6 419:6 420:7 423:1 424:2 425:6 426:2 427:45 428:32 429:3 430:3 431:36 432:46 433:6 434:7 435:11 436:6 437:3 438:5 439:4 440:576 441:3 442:5 443:5 444:4 445:2 446:40 447:7 448:88 449:6 450:3 
0 0.0001727235523561624 1:14 2:163 4:41 5:3 6:11 7:22 8:63 9:20 10:122 11:41 12:167 13:2 14:10 15:26 16:149 18:23 20:1 21:9 22:41 23:7 24:7 25:1 26:23 27:12 28:5 30:19 31:10 32:3 33:72 34:22 35:2 36:15 37:13 38:38 39:78 40:19 41:11 42:31 43:86 44:6 45:39 46:24 47:9 48:3 50:45 51:23 52:114 53:15 54:27 55:18 56:120 57:41 58:82 59:2 60:19 61:24 63:7 64:49 65:121 66:132 68:25 69:58 70:7 71:54 72:96 74:27 75:7 76:14 77:3 78:2 79:20 80:41 81:11 82:9 83:47 84:25 85:15 86:14 87:126 88:32 89:13 90:4 91:28 92:61 93:16 94:28 95:22 96:1 97:5 98:19 100:13 101:6 102:15 103:5 104:24 105:6 106:6 107:40 109:1 110:40 111:2 112:2 114:73 115:17 116:38 118:48 119:60 120:4 121:7 122:25 123:5 124:81 126:30 127:46 128:15 129:9 131:95 132:21 135:87 137:9 138:17 139:96 141:5 142:35 143:17 144:32 146:22 147:101 148:1 149:6 150:5 151:4 152:4 153:20 154:12 155:8 156:61 158:34 159:10 161:33 162:197 163:21 165:1 166:42 167:1 168:4 169:2 170:3 172:11 173:39 176:54 178:31 180:2 181:44 182:54 183:2 184:11 185:2 186:7 188:30 189:6 190:2 193:3 194:22 195:23 196:6 197:19 199:1 200:16 202:7 203:3 205:4 206:5 207:10 208:29 213:19 215:4 216:40 217:16 218:17 220:2 222:10 223:1 224:36 225:16 226:22 228:4 229:1 230:30 233:36 234:10 235:20 236:19 238:2 239:2 240:13 241:103 242:85 243:2 244:5 245:35 246:4 247:1 248:55 249:18 250:37 252:10 254:41 255:17 256:5 258:9 259:1 260:46 261:6 262:9 263:20 265:29 266:71 267:11 269:47 270:2 271:10 272:2 273:17 274:1 275:6 276:1 277:1 278:9 279:1 282:2 283:11 284:36 286:53 287:24 288:3 289:60 290:3 291:42 293:3 294:10 295:3 296:83 297:2 299:6 300:12 301:117 302:6 304:6 305:20 306:1 307:4 308:116 309:21 310:5 311:13 312:4 313:17 314:99 315:25 316:4 317:32 318:1 319:6 320:133 321:10 322:4 323:5 324:26 325:11 326:20 327:24 328:31 329:8 330:119 331:9 332:1 333:9 334:76 335:57 336:8 337:2 340:20 341:5 342:5 343:82 344:2 345:127 346:2 347:10 348:8 349:10 350:3 351:4 352:4185 353:82 354:11 355:2 356:29 357:8 358:20 359:8 360:1 361:2 362:6 363:22 364:17 365:155 366:8 367:5 368:1 369:19 370:46 371:4 372:24 373:5 374:3 375:117 376:21 377:9 378:1 379:117 380:20 381:6 382:3 383:3 384:1 385:36 386:14 387:23 388:16 389:5 390:31 392:6 393:6 394:46 395:122 396:6 397:94 398:5 399:8 400:56 402:10 403:7 404:16 405:30 406:2 407:138 408:21 409:2 410:4 411:23 412:15 413:73 414:8 415:5 416:37 417:11 418:21 419:23 420:16 421:13 422:6 423:1 424:103 425:5 426:34 427:23 428:69 429:23 430:26 431:98 432:62 433:1 434:27 435:33 436:28 437:32 438:23 439:1 440:506 442:15 443:7 444:16 445:5 446:64 447:16 448:9 449:15 450:34 
0 0.0006607759497618399 1:15 2:12 3:4 4:1 5:40 6:6 8:17 9:6 10:13 11:8 12:19 13:136 14:19 15:19 16:140 17:7 18:14 19:147 21:4 22:28 23:6 24:119 25:66 26:9 27:12 29:98 30:13 31:9 32:10 33:63 34:31 36:24 37:2 38:51 39:9 40:20 41:11 42:11 43:169 44:23 45:13 46:4 48:40 50:27 51:26 52:73 53:4 54:39 55:16 56:42 57:69 58:13 59:13 60:1 61:28 62:24 63:4 64:17 66:154 68:13 69:12 71:4 72:100 73:7 74:7 76:9 77:99 78:46 79:19 80:12 82:17 83:13 84:32 85:92 86:36 88:11 89:9 90:71 91:21 92:17 93:26 94:11 95:5 96:5 98:59 99:69 100:20 101:4 103:14 104:24 105:1 106:29 107:25 108:94 109:6 110:30 111:2 112:33 114:64 115:10 116:14 117:74 118:31 119:129 120:29 121:7 122:26 123:25 124:35 125:3 126:32 127:25 128:8 129:1 130:2 131:98 132:7 133:64 134:1 135:4 136:136 137:72 138:7 139:157 140:28 141:5 142:120 143:9 144:4 145:81 146:23 147:138 148:20 149:25 150:15 151:9 152:39 153:14 154:3 155:38 156:8 157:10 158:5 159:6 161:3 163:8 164:3 165:3 166:4 167:5 168:11 169:3 172:10 173:6 176:12 177:1 178:25 179:16 180:10 181:16 182:9 184:3 185:4 186:5 187:2 188:20 189:6 190:2 191:3 193:6 194:23 195:27 197:11 199:1 200:18 201:3 202:10 203:7 204:1 205:2 206:51 207:11 208:28 212:1 213:27 214:1 215:4 216:20 217:4 218:8 219:3 220:11 222:25 224:26 225:7 226:25 227:5 228:26 229:17 231:3 234:10 235:16 236:15 237:46 238:5 240:6 241:18 242:3 243:1 244:4 245:3 246:21 247:2 248:33 249:6 250:16 251:1 252:5 253:16 254:10 255:8 256:16 257:3 258:14 260:51 261:11 262:7 263:10 265:14 266:6 267:22 268:1 269:2 270:1 271:10 273:3 274:65 275:1 276:7 278:10 279:3 280:3 281:1 282:5 283:9 284:22 286:34 287:29 289:4 290:23 291:13 293:57 294:53 295:2 298:5 299:49 300:7 301:6 304:4 305:14 309:17 310:57 311:5 312:8 313:14 314:54 315:6 316:162 317:9 318:2 319:2 321:14 322:3 323:31 324:21 325:6 326:11 327:17 328:13 329:1 330:1 331:11 332:9 334:40 335:12 336:14 337:17 338:5 339:27 340:13 341:9 342:2 343:4 344:16 345:32 346:2 347:4 348:6 349:21 350:5 351:21 352:6517 353:4 354:22 355:1 356:25 357:2 358:16 359:5 360:144 361:18 362:1 363:5 364:1 365:75 366:1 367:17 369:8 370:10 371:1 372:10 373:7 374:8 375:5 376:8 377:5 378:65 379:5 380:22 381:14 382:5 384:10 385:25 386:4 387:7 388:27 389:3 390:21 391:12 392:2 393:1 394:6 396:8 397:3 398:2 399:8 400:15 401:75 402:41 403:5 404:11 405:14 406:4 407:2 408:30 409:31 410:11 411:13 412:20 413:12 414:5 415:4 416:71 417:1 418:16 419:27 420:15 421:12 422:8 423:2 424:5 425:14 426:25 427:27 428:24 429:8 430:20 431:171 432:68 433:4 434:24 435:30 436:26 437:12 438:8 440:9 441:18 442:4 443:8 444:10 445:1 446:19 447:3 449:12 450:17 
0 0.0001273135665036257 1:18 2:15 4:61 5:2 6:8 7:116 8:32 9:43 10:32 11:16 12:141 13:121 14:18 15:18 16:70 17:11 18:22 19:1 20:65 21:9 22:20 23:7 25:91 26:16 27:43 28:35 29:69 30:26 31:35 33:11 34:10 35:144 36:23 37:38 38:109 39:80 40:24 41:28 42:21 43:215 44:10 45:16 46:15 47:85 48:20 49:46 50:138 51:10 52:125 53:17 54:40 55:12 56:115 57:69 58:59 59:12 60:26 61:17 62:74 63:16 64:28 65:92 66:183 67:1 68:27 69:162 70:12 71:41 73:117 74:9 75:30 76:31 77:99 78:12 79:32 80:23 81:17 82:17 83:34 84:26 85:12 86:19 87:60 88:35 89:30 90:5 91:18 92:81 93:21 94:1 95:15 96:1 97:7 98:134 99:74 100:24 101:9 102:156 103:24 104:19 105:6 106:10 107:36 108:158 109:45 110:20 111:76 112:39 114:23 115:134 116:25 117:92 118:15 119:113 120:85 121:3 122:12 123:26 124:52 125:46 126:49 127:79 128:15 129:177 130:10 131:54 132:20 134:176 136:45 137:17 138:5 139:2 140:43 141:12 142:26 143:19 144:53 145:48 146:16 147:134 148:5 149:8 150:27 151:19 152:10 153:11 154:9 155:4 156:51 157:16 158:38 159:37 160:9 161:72 162:5 163:26 164:20 165:14 166:76 167:3 168:2 169:2 170:2 171:12 172:5 173:36 174:25 175:10 176:62 177:15 178:26 179:80 180:36 181:17 182:26 183:24 184:5 185:4 186:9 187:16 188:68 189:9 190:48 191:25 193:1 194:27 195:68 196:27 197:53 198:16 199:35 200:16 201:10 202:34 203:12 204:18 205:17 207:14 208:4 209:11 210:10 211:22 212:7 213:12 214:38 215:5 216:17 217:28 218:82 219:12 220:7 221:3 222:5 223:7 224:70 225:22 226:31 227:3 228:52 229:85 230:37 231:34 233:33 234:10 235:22 236:15 237:8 238:53 239:72 240:2 241:112 242:12 243:3 244:28 245:11 246:4 247:10 248:15 249:17 250:16 251:22 252:3 253:1 254:1 255:84 256:3 257:2 258:7 259:2 260:27 261:3 262:7 263:10 264:25 265:17 266:75 267:6 268:6 269:56 271:10 273:23 274:78 275:2 276:20 277:4 278:51 279:1 280:1 281:9 283:31 284:11 285:5 286:25 287:61 289:2 290:67 291:53 292:23 293:5 294:9 295:4 296:3 297:4 298:54 299:51 300:10 301:31 302:2 304:8 305:40 306:1 307:10 308:6 309:18 310:19 311:76 312:11 313:46 314:5 315:16 316:51 317:14 318:19 319:2 320:10 321:32 322:8 323:15 324:25 325:4 326:39 327:23 328:15 329:18 330:29 331:21 332:4 333:21 334:123 335:15 336:9 337:11 338:16 339:3 340:11 341:11 342:7 345:94 346:6 347:20 348:20 349:95 350:2 351:2 352:1734 354:20 355:2 356:37 357:48 358:30 359:11 360:42 361:4 362:2 363:24 364:18 365:99 366:4 367:9 368:79 369:25 370:67 371:2 372:37 373:21 374:2 375:55 376:25 377:5 378:2 379:69 380:24 381:16 382:10 383:99 384:7 385:22 386:21 387:19 388:24 389:2 390:27 392:3 393:9 394:104 395:78 396:9 397:1 398:91 399:4 400:13 401:13 402:8 403:8 404:14 405:24 406:5 407:70 408:20 409:17 410:12 411:29 412:12 413:6 414:23 415:12 416:64 417:66 418:19 419:15 420:23 421:3 422:3 423:7 424:24 425:25 426:26 427:16 429:10 430:26 431:146 432:4 433:8 434:32 435:14 436:5 437:16 438:16 439:3 440:43 441:2 442:28 443:15 444:17 445:10 446:22 447:32 448:6 449:18 450:19 
0 0.0004094688715839123 1:32 2:86 3:145 5:68 6:27 7:46 8:41 9:19 10:53 11:8 12:78 13:26 14:33 15:18 16:153 17:3 18:16 20:145 21:6 22:17 23:1 24:15 25:96 26:45 27:12 28:16 29:46 30:33 32:52 33:123 34:30 35:65 36:2 37:14 38:27 39:13 40:28 41:12 42:10 43:90 44:7 45:10 46:1 47:1 48:15 49:22 50:70 51:36 52:97 53:28 54:20 55:23 56:16 57:25 58:22 59:51 60:236 61:17 62:59 63:8 64:10 65:7 66:218 67:63 68:15 69:24 70:26 71:49 72:10 73:141 74:18 75:20 76:6 77:46 78:97 79:10 80:31 81:2 82:7 83:36 84:17 85:20 86:18 87:85 88:13 89:20 90:68 91:48 92:19 93:5 94:49 95:50 96:40 98:101 99:30 100:19 101:7 102:4 103:8 104:32 105:36 106:5 107:46 108:105 110:27 111:51 112:21 113:11 114:36 115:15 116:117 118:22 119:14 120:161 121:24 122:24 123:15 124:13 126:38 127:44 128:14 129:1 130:8 131:128 132:90 133:45 134:7 136:17 137:79 138:33 139:20 140:83 141:17 142:96 143:1 144:28 146:28 147:28 149:15 150:42 152:16 153:28 154:6 155:1 156:38 157:1 158:25 160:3 161:15 165:3 166:6 170:8 172:1 173:18 175:3 176:44 178:23 180:3 181:28 182:67 183:14 184:17 185:3 186:11 187:1 188:10 189:6 190:13 191:1 193:8 194:52 195:20 196:81 197:7 200:13 202:19 203:7 206:12 207:14 208:27 209:1 210:9 211:7 212:3 213:13 214:10 215:3 216:5 217:21 218:17 219:2 220:11 222:6 224:135 225:22 226:21 228:1 229:1 230:22 233:6 234:12 235:17 236:17 237:1 238:8 239:45 240:6 241:10 242:23 243:2 244:44 245:17 246:4 247:2 248:19 249:16 250:19 251:1 252:3 254:13 255:2 256:23 258:27 260:33 261:5 262:15 263:17 265:6 266:112 267:26 268:4 269:3 270:5 271:8 273:13 275:8 278:89 279:1 281:15 282:1 283:12 284:11 286:32 287:122 289:1 290:8 291:11 293:1 294:4 295:2 296:1 299:2 300:24 301:71 302:2 303:57 304:20 305:16 306:1 307:1 308:24 309:24 310:6 311:9 312:9 313:23 314:21 315:21 316:4 317:13 318:18 319:2 320:161 321:19 322:6 323:21 324:12 326:2 327:18 328:6 329:10 330:20 331:20 332:6 333:8 334:119 335:29 336:7 337:6 338:28 339:1 340:31 341:140 342:3 343:41 344:98 345:246 346:5 347:16 348:8 349:29 350:8 351:100 352:3283 353:9 354:13 355:6 356:26 358:13 359:16 361:11 362:2 363:16 365:137 366:10 367:6 368:118 369:12 370:8 372:15 373:23 374:7 375:119 376:13 377:25 378:61 379:5 380:16 381:10 382:11 383:288 384:8 385:16 386:9 387:10 388:23 389:3 390:27 391:27 392:6 393:16 394:2 395:9 396:13 397:14 398:141 399:19 400:10 402:20 403:9 404:21 405:22 406:4 407:6 408:26 409:12 410:6 411:15 412:23 413:48 414:2 415:14 416:29 417:8 418:6 419:9 420:10 421:16 422:9 423:9 424:47 425:26 426:6 427:45 429:12 430:19 431:183 432:79 433:14 434:18 435:20 436:6 437:12 438:15 439:2 440:241 441:64 442:11 443:14 444:7 445:8 446:205 447:15 449:9 450:9 
0.0001208945702039932 0.0008163711260053794 1:12 2:35 3:2 4:42 5:3 7:112 8:43 9:27 10:11 11:1 12:120 13:16 14:9 15:20 16:97 17:19 18:21 20:55 21:6 22:9 23:11 24:11 25:46 26:18 27:42 28:32 29:90 30:11 31:2 33:31 34:8 35:17 36:6 37:10 38:51 39:34 40:8 41:6 42:23 43:72 44:6 45:7 47:55 48:11 49:3 50:29 51:10 52:13 53:9 54:18 55:12 56:71 57:54 58:21 59:6 60:4 61:13 62:4 63:2 64:20 65:9 66:88 67:8 68:19 69:91 70:13 71:27 72:12 74:26 75:17 76:4 77:63 78:23 79:22 80:25 81:20 82:42 83:23 84:23 85:81 86:60 87:10 88:88 89:15 90:104 91:13 92:39 93:5 94:2 95:20 96:16 97:3 98:35 99:33 100:3 101:8 102:7 103:16 104:10 105:17 106:4 107:30 108:25 109:72 110:27 111:1 112:9 114:3 116:88 117:86 118:9 119:96 120:13 121:2 122:14 123:24 124:5 125:25 126:26 127:41 128:12 129:39 130:6 132:17 133:3 134:16 135:23 136:65 137:71 138:10 139:40 140:4 141:15 142:61 143:21 144:65 146:21 147:163 148:4 149:6 150:42 151:1 152:10 153:21 154:19 156:34 158:43 159:2 161:45 162:289 163:40 166:44 169:1 170:3 172:14 173:22 176:82 178:37 180:3 181:34 182:19 183:6 184:7 185:2 186:2 188:12 189:3 190:13 194:71 195:15 196:3 197:6 200:8 201:1 202:30 203:1 204:2 205:12 206:3 207:7 208:36 210:1 211:3 212:3 213:8 215:1 216:9 217:11 221:2 222:8 223:1 224:52 225:1 226:17 228:2 229:1 230:42 231:34 233:13 234:13 235:8 236:26 237:20 238:45 239:23 241:47 242:14 244:9 245:53 246:4 248:23 249:11 250:12 251:2 252:3 254:27 255:6 256:3 257:2 258:4 259:8 260:34 261:1 262:8 263:15 265:11 266:23 267:24 268:18 269:11 271:19 273:2 277:1 278:14 280:1 282:3 283:20 284:7 286:18 287:19 289:4 290:15 291:18 294:9 295:1 296:22 297:1 299:5 300:9 301:53 303:7 304:16 305:15 306:1 307:35 308:22 309:27 310:6 311:12 312:3 313:3 314:91 315:39 316:1 317:7 318:5 319:4 320:29 321:10 322:3 323:14 324:21 325:62 326:14 327:10 328:10 329:10 330:26 331:30 332:5 333:12 334:57 335:21 336:7 337:5 338:2 339:2 340:4 341:19 342:2 343:8 344:3 345:192 346:8 347:12 348:5 349:1 350:1 352:6125 354:7 355:1 356:25 357:67 358:15 359:1 361:5 362:4 363:22 364:9 365:30 366:1 367:10 368:60 369:8 370:58 372:19 373:18 374:3 375:14 376:30 377:11 378:1 379:63 380:19 381:14 382:1 383:109 384:2 385:10 386:18 387:17 388:25 389:68 390:11 392:3 393:14 394:24 395:14 396:2 397:1 398:166 399:7 400:40 402:17 403:7 404:16 405:31 406:5 407:142 408:28 409:37 410:6 411:21 412:20 413:10 414:11 415:7 416:24 417:4 418:12 419:12 420:20 421:14 422:6 423:4 424:13 425:8 426:16 427:38 428:11 429:6 430:10 431:25 432:3 433:2 434:22 435:13 436:10 437:9 438:15 439:1 440:261 441:10 442:8 443:12 444:15 445:6 446:40 447:8 448:52 449:15 450:13 
0 0.002471636306380933 1:14 2:22 3:30 4:147 6:72 7:31 8:30 9:20 10:2 11:3 12:175 13:46 14:11 15:11 16:53 17:55 18:12 20:121 21:10 22:25 23:189 24:126 25:58 26:27 27:42 28:17 29:11 30:12 31:53 32:67 33:160 34:25 35:45 36:5 37:7 38:21 39:58 40:13 41:5 42:16 44:5 45:16 46:158 48:20 50:10 51:34 52:9 53:13 54:26 55:9 56:173 57:63 58:60 59:37 60:17 61:7 62:1 63:8 64:77 65:110 66:32 67:49 68:6 69:45 70:30 71:45 72:109 73:2 74:21 75:1 76:11 77:9 78:20 79:22 80:29 81:68 82:11 83:69 84:26 85:76 86:10 87:22 88:4 89:10 90:46 91:27 92:18 93:26 94:17 95:14 96:64 98:50 99:45 100:5 101:7 102:15 103:33 104:18 105:81 106:2 107:12 108:4 110:23 112:17 114:80 116:26 117:1 118:25 119:9 120:102 121:2 122:1 123:18 124:34 126:22 127:14 128:11 129:51 130:18 131:90 132:74 133:9 134:12 135:78 138:26 139:9 140:1 141:33 142:3 143:11 144:86 146:39 147:2 149:11 150:27 152:5 153:15 154:6 155:6 156:83 158:64 159:4 161:58 162:5 163:12 165:13 166:29 167:15 168:4 170:22 171:16 172:12 173:25 176:1 177:14 178:17 180:45 181:21 182:19 183:117 184:2 185:4 186:3 188:12 189:9 190:4 193:12 194:19 195:7 196:22 197:8 198:6 200:8 201:9 202:1 203:7 204:1 206:12 207:1 208:84 210:2 212:2 213:9 215:4 216:3 217:12 221:30 222:8 224:20 225:8 226:8 227:16 228:3 230:26 231:181 233:29 234:3 235:15 236:8 237:17 238:55 239:37 240:1 241:86 242:15 243:3 245:30 246:3 247:1 248:12 249:10 250:7 252:4 253:1 254:1 255:5 256:19 258:3 260:15 261:2 262:3 263:25 265:8 266:29 267:27 268:7 269:8 270:7 271:9 274:1 275:17 277:1 278:80 280:6 283:27 284:22 285:5 286:23 287:38 289:6 290:5 291:11 292:11 293:3 294:14 297:4 299:5 300:9 301:28 302:2 303:57 304:27 305:14 307:2 308:8 309:35 310:6 311:23 312:4 313:14 314:66 315:104 316:2 317:17 318:4 319:3 320:24 321:8 322:6 323:10 324:10 325:38 326:9 327:9 328:8 329:9 330:45 331:7 332:1 333:14 334:53 335:74 336:5 337:5 338:10 339:10 340:1 341:29 342:6 343:57 344:61 345:19 346:3 347:4 348:15 349:1 350:6 351:129 352:4226 353:67 354:4 355:8 356:15 357:33 358:7 359:3 361:22 362:16 363:12 364:4 365:156 366:7 367:9 369:6 370:43 372:17 373:8 374:4 375:23 376:12 377:7 378:7 379:140 380:14 381:8 382:3 383:14 384:8 385:13 386:22 387:35 388:41 389:15 390:9 391:35 392:21 393:7 394:22 395:124 396:4 397:143 398:3 399:4 400:21 401:1 402:20 403:4 404:17 405:20 406:4 407:35 408:13 409:4 410:18 411:20 412:44 413:284 414:2 415:6 416:15 417:66 418:15 419:4 420:26 421:9 422:8 423:5 424:23 425:2 426:17 427:29 428:104 429:2 430:4 431:226 432:178 433:1 434:17 435:8 436:13 437:18 438:11 439:5 440:267 441:39 442:8 443:4 444:5 445:7 446:49 447:5 448:49 449:8 450:6 
0.0002561860923894015 0.002342191714908357 1:17 2:14 3:3 4:22 5:1 6:6 8:36 9:58 10:51 11:7 12:11 13:10 14:13 15:29 16:6 17:2 18:17 20:37 21:9 22:19 24:13 25:69 26:21 27:3 28:18 29:37 30:16 31:16 33:60 34:13 35:24 36:9 37:8 39:4 40:27 41:20 42:23 44:2 45:15 46:17 49:14 50:35 51:19 52:29 53:18 54:45 55:27 57:2 58:13 59:48 60:71 61:10 62:13 63:56 65:5 66:12 67:11 68:18 69:11 70:20 71:65 72:9 74:18 75:105 76:21 77:54 78:4 79:19 80:24 81:72 82:45 83:7 84:26 85:10 86:18 87:43 88:3 89:14 90:25 91:29 92:28 93:18 94:11 95:54 96:19 97:141 98:111 99:57 100:28 101:110 102:147 103:12 104:33 105:1 107:17 108:46 109:4 110:32 111:63 112:6 113:23 114:7 115:38 116:45 118:40 119:44 120:12 121:17 122:9 123:29 124:1 125:2 126:39 127:2 128:8 129:5 130:43 131:19 132:27 133:17 134:193 135:20 136:1 137:60 138:13 139:26 140:6 141:7 142:30 143:21 144:41 145:1 146:19 149:20 150:12 151:1 152:32 153:24 154:10 155:1 156:38 158:4 159:9 160:1 161:3 165:44 166:2 167:4 168:2 172:2 173:17 176:1 178:31 180:3 181:33 182:8 183:112 184:3 185:3 186:14 188:9 189:12 190:138 191:2 193:7 194:8 195:7 197:22 200:24 202:2 203:9 205:4 206:1 207:12 208:14 210:15 211:10 212:7 213:17 214:5 216:17 217:40 218:66 220:18 221:10 222:56 224:33 225:23 226:37 228:4 230:10 233:7 234:16 235:17 236:15 237:19 238:62 239:11 240:7 241:21 242:12 244:76 245:9 246:3 248:18 249:14 250:4 252:2 254:5 255:13 256:15 258:13 260:14 261:5 262:5 263:20 265:14 266:37 267:27 268:11 269:2 270:1 271:3 273:7 275:8 278:30 281:3 283:23 284:24 286:29 287:31 289:1 290:8 291:32 293:14 294:71 295:1 299:4 300:7 301:3 302:2 303:9 304:9 305:56 306:1 307:105 308:9 309:11 310:4 311:4 312:10 313:24 314:3 315:11 316:3 317:16 318:9 319:2 320:8 321:11 322:4 323:29 324:16 325:5 326:15 327:13 328:8 329:5 330:9 331:11 332:9 333:12 334:11 335:8 336:4 337:23 338:10 339:11 341:82 342:6 343:21 345:26 346:4 347:8 348:11 349:14 350:1 351:2 352:7298 353:3 354:19 355:1 356:14 358:19 359:12 361:12 362:1 363:9 364:13 365:27 366:3 367:9 368:83 369:5 370:21 372:11 373:9 374:11 375:3 376:10 377:14 378:5 379:3 380:11 381:12 382:4 383:83 385:20 386:6 387:11 388:12 389:10 390:20 391:4 392:2 393:10 394:5 396:17 397:5 398:24 399:5 400:19 401:1 402:14 403:6 404:29 405:24 406:3 407:46 408:19 409:5 410:4 411:20 412:7 413:36 414:6 415:9 416:16 417:1 418:22 419:19 420:16 421:12 422:10 423:7 424:8 425:19 426:20 427:27 428:21 429:4 430:15 431:84 432:13 433:12 434:29 435:3 436:15 437:10 438:7 439:8 440:179 441:13 442:9 443:18 444:5 445:4 446:104 447:29 448:8 449:9 450:3 
-0 0.0008046975245912053 1:18 2:26 4:16 5:11 6:8 7:7 8:52 9:16 10:8 12:15 13:1 14:14 15:30 16:3 17:14 18:21 21:2 22:26 25:13 26:28 27:2 28:11 29:13 30:19 31:59 33:9 34:27 35:5 36:28 37:15 38:33 39:35 40:18 41:15 42:37 43:4 44:1 45:41 46:39 47:11 48:8 50:11 51:24 52:5 53:22 54:23 55:23 56:7 57:15 58:36 59:2 60:4 61:31 63:9 64:70 65:43 66:19 68:17 69:43 70:10 71:39 72:1 73:1 74:28 75:19 76:24 77:18 78:7 79:20 80:61 81:14 82:30 83:29 84:23 85:3 86:14 87:17 88:27 89:14 90:7 91:19 92:44 93:17 94:2 95:33 96:1 97:5 98:8 99:3 100:7 101:29 103:17 104:19 105:15 106:2 107:37 108:1 109:17 110:37 111:2 112:6 116:53 117:16 118:43 119:9 120:11 121:7 122:17 123:27 125:9 126:23 127:21 128:11 129:42 130:81 131:6 132:21 133:13 134:9 136:7 137:5 138:18 139:13 140:7 141:2 142:10 143:12 144:33 145:2 146:34 147:23 148:10 149:9 150:3 151:6 152:41 153:25 154:25 155:19 156:31 157:10 158:57 159:28 160:14 161:29 162:2 163:23 164:16 165:41 166:24 167:17 168:22 169:1 171:29 172:9 173:51 174:37 175:16 176:13 177:29 178:48 180:118 181:49 182:11 183:9 184:16 185:11 186:14 187:20 188:53 189:7 190:18 191:6 193:4 194:22 195:41 196:16 197:34 198:24 199:29 200:17 201:23 202:29 203:17 204:21 205:24 207:9 208:15 209:15 210:27 211:33 212:13 213:34 214:59 215:19 216:50 217:15 218:6 219:41 220:28 221:28 222:40 223:34 224:29 225:26 226:29 227:15 228:29 229:1 230:32 231:6 233:9 234:37 235:15 236:21 237:28 238:56 239:13 240:31 241:42 242:13 243:2 244:16 245:58 246:16 247:35 248:42 249:12 250:15 251:13 252:23 253:5 254:11 255:38 256:16 257:9 258:6 259:19 260:80 261:16 262:17 263:6 264:23 265:21 266:54 267:19 268:9 269:49 270:14 271:24 273:15 274:7 275:7 276:43 277:21 278:33 280:16 281:38 282:21 283:29 284:53 285:19 286:42 287:13 288:1 289:19 290:37 291:40 292:25 293:21 294:59 295:4 296:6 297:24 298:53 299:36 300:29 301:5 302:1 303:5 304:2 305:25 306:1 307:13 308:10 309:3 310:22 311:15 312:3 313:14 314:43 315:13 316:13 317:40 318:3 320:10 321:20 322:3 323:12 324:14 325:24 326:23 327:16 328:22 330:1 331:13 332:10 333:3 334:18 335:46 336:5 337:50 338:32 339:6 340:22 341:13 342:2 344:2 345:22 346:7 347:15 348:16 349:9 350:4 351:8 352:6970 354:4 356:37 357:22 358:25 359:24 360:3 361:3 362:2 363:7 364:28 365:13 366:24 367:1 369:16 370:42 371:7 372:45 373:5 375:5 376:8 377:1 378:10 379:39 380:23 381:6 382:6 384:8 385:26 386:3 387:11 388:15 389:1 390:23 393:8 394:29 395:30 396:35 398:4 399:2 400:31 401:4 402:1 403:5 404:7 405:24 406:5 407:18 408:21 409:6 410:7 411:21 412:10 413:3 414:18 415:4 416:64 417:70 418:13 419:17 420:12 421:27 422:2 424:18 425:1 426:14 427:4 429:22 430:24 431:8 432:1 433:14 434:21 435:29 436:20 437:16 438:23 440:32 441:1 442:9 443:5 444:19 445:2 446:60 447:12 448:38 449:12 450:14 
-0.002810929427125962 0.0003743403815561976 1:9 2:59 3:7 4:13 5:25 6:4 7:29 8:19 9:10 10:24 11:5 12:58 13:14 14:11 15:8 16:2 17:4 18:8 20:8 21:7 22:13 23:4 25:62 26:20 27:2 28:9 29:23 30:7 31:10 32:5 33:36 34:14 35:26 36:19 37:9 38:25 39:71 40:9 41:16 42:21 43:17 44:3 45:23 46:2 48:2 50:21 51:9 52:11 53:10 54:16 55:8 56:18 57:12 58:62 59:14 60:5 61:30 62:4 63:21 64:19 65:20 66:14 68:14 69:72 70:8 71:81 72:4 74:10 75:11 76:22 77:9 78:3 79:12 80:29 81:7 82:10 83:76 84:15 85:14 86:8 87:15 88:23 89:8 90:17 91:20 92:54 93:25 94:25 95:11 97:11 98:33 99:3 100:8 101:3 102:6 103:18 104:6 105:4 106:5 107:23 108:16 109:34 110:16 111:5 112:11 113:17 114:1 115:54 116:21 117:41 118:25 119:35 120:9 121:4 122:2 123:7 125:34 126:29 127:61 128:14 130:9 131:2 132:28 133:4 134:20 136:2 137:37 138:9 139:1 140:3 142:16 143:6 144:4 145:4 146:10 147:19 148:5 149:6 150:4 151:5 152:49 153:8 154:10 155:22 156:58 157:20 158:13 159:26 160:22 161:18 162:3 163:20 164:17 165:1 166:56 167:33 168:18 169:1 170:5 171:17 172:25 173:28 174:31 175:22 176:28 177:35 178:20 179:2 180:25 181:38 182:40 183:15 184:19 185:14 186:11 187:26 188:19 189:5 190:16 191:2 192:3 193:7 194:16 195:46 196:12 197:29 198:17 199:31 200:37 201:19 202:19 203:23 204:21 205:48 206:3 207:10 208:17 209:24 210:3 211:61 212:5 213:28 214:50 215:24 216:34 217:12 218:7 219:33 220:45 221:4 222:5 223:27 224:26 225:7 226:21 227:24 228:48 229:5 230:60 231:23 232:4 233:58 234:27 235:7 236:13 237:38 238:11 239:54 240:28 241:37 242:19 243:3 244:5 245:19 246:16 247:26 248:14 249:16 250:8 251:16 252:23 253:6 254:10 255:22 256:19 257:6 258:9 259:18 260:34 261:20 262:3 263:18 264:15 265:5 266:36 268:48 269:32 270:21 271:13 272:2 273:32 274:3 275:1 276:34 277:19 278:33 279:4 280:18 281:46 282:20 283:3 284:44 285:27 286:41 287:18 288:6 289:43 290:65 291:37 292:28 293:41 294:13 295:2 296:17 297:22 298:42 299:14 300:18 301:10 302:1 303:1 304:5 305:21 306:3 307:45 308:5 309:8 310:11 311:2 312:9 313:12 314:53 315:9 316:5 317:28 318:2 320:5 321:10 322:3 324:9 325:27 326:15 327:15 328:17 329:6 330:2 331:9 332:12 333:7 334:15 335:25 336:2 337:12 338:8 339:2 340:6 341:5 342:5 345:87 346:3 347:11 348:6 349:4 352:7641 353:4 354:5 355:1 356:17 357:83 358:9 359:6 360:2 361:5 362:7 363:6 364:18 365:28 366:6 367:6 368:2 369:13 370:75 371:13 372:21 373:5 375:10 376:11 377:6 378:10 379:25 380:9 381:3 382:6 383:10 384:9 385:14 386:6 387:11 388:9 389:9 390:17 391:8 392:4 393:5 394:52 395:21 396:14 399:5 400:25 401:5 402:4 403:5 404:7 405:14 406:5 407:7 408:5 409:4 410:5 411:22 412:15 413:6 414:16 415:2 416:28 417:2 418:12 419:4 420:14 421:27 422:4 423:5 424:14 425:5 426:18 427:4 429:13 430:19 431:9 432:13 433:3 434:19 435:14 436:8 437:15 438:4 439:7 440:87 441:5 442:11 443:10 444:9 446:93 447:9 448:9 449:8 450:14 
-0.0002322208346509037 0 1:6 2:11 4:48 5:1 6:3 7:10 8:14 9:21 10:93 11:12 12:11 13:1 14:9 15:374 16:1 17:5 18:18 21:9 22:18 23:1 24:1 25:37 26:9 27:5 28:21 29:4 30:13 31:7 34:11 35:38 36:12 37:12 38:22 39:43 40:60 41:3 42:14 43:16 44:3 45:16 47:4 48:12 50:1 51:13 53:11 54:167 55:19 56:38 57:65 58:34 59:9 61:5 63:18 64:42 66:1 67:2 68:9 69:20 70:57 71:23 74:5 75:5 76:31 77:6 78:11 79:7 80:13 81:2 82:11 83:24 84:24 85:15 86:19 87:93 88:15 89:9 90:2 91:15 92:142 93:10 94:49 95:23 97:130 98:29 100:10 101:7 102:6 103:7 104:100 106:1 107:13 108:14 110:26 111:1 112:9 113:225 115:16 116:6 118:26 119:17 120:41 121:2 122:16 123:849 125:2 126:157 127:23 128:5 129:38 130:1 131:5 132:19 133:4 134:2 135:1 137:37 138:3 139:4 140:3 141:2 143:7 144:143 146:6 147:9 149:19 150:4 151:7 152:205 153:16 154:24 155:8 156:202 157:18 158:19 159:19 160:40 161:76 162:79 163:30 164:19 165:5 166:30 167:21 168:3 169:2 171:19 172:1 173:20 174:32 175:11 176:69 177:31 178:23 179:1 180:10 181:28 182:1 183:5 184:7 185:7 186:33 187:23 188:17 189:12 190:3 191:3 193:6 194:7 195:37 196:515 197:20 198:18 199:23 200:20 201:7 202:59 203:19 204:47 205:50 207:14 208:35 209:13 210:1 211:137 213:17 214:76 215:34 216:21 217:9 218:14 219:25 220:232 221:2 222:5 223:36 224:15 225:9 226:23 227:15 228:42 229:2 230:1 231:3 232:1 233:3 234:28 235:9 236:12 237:403 238:11 239:120 240:31 241:157 242:2 243:2 244:10 245:5 246:5 247:21 248:3 249:8 250:17 251:24 252:16 254:6 255:14 256:3 257:15 258:15 259:16 260:54 261:9 262:56 263:22 264:27 265:7 266:15 267:3 268:95 269:44 270:27 271:14 273:31 274:2 275:2 276:44 277:16 278:12 279:2 280:26 281:93 282:10 284:25 285:33 286:30 287:2 288:3 290:101 291:27 292:17 293:206 294:4 295:2 296:56 297:47 298:36 299:9 300:11 301:11 302:2 304:4 305:20 306:2 307:1 308:6 309:5 310:8 311:27 312:8 313:2 314:61 315:2 317:16 318:2 319:1 320:3 321:6 323:8 324:4 325:2 326:9 327:4 328:6 329:4 331:7 332:2 333:2 334:19 335:11 336:4 337:1 339:1 340:84 341:13 342:1 344:3 345:6 346:2 347:9 348:2 349:23 350:1 352:4447 354:41 355:1 356:11 357:20 358:2 359:5 360:1 361:3 362:1 363:6 364:7 365:6 366:25 367:3 369:6 370:38 371:1 372:5 373:6 374:2 375:2 376:6 377:5 378:5 379:1 380:11 381:7 384:3 385:24 386:5 387:4 388:18 389:5 390:23 392:1 393:3 394:36 396:114 399:2 400:10 401:2 402:12 403:2 404:22 405:7 406:3 408:4 409:17 410:5 411:13 412:15 414:4 416:18 417:6 418:14 419:29 420:12 421:35 422:8 423:4 424:23 425:14 426:12 427:109 429:4 430:5 431:9 433:3 434:28 435:7 437:8 438:12 440:134 442:6 443:12 444:6 445:1 446:33 447:15 448:2 449:7 450:6 
-0.001369509760590685 0 1:19 2:60 3:1 4:82 5:2 6:17 7:7 8:73 9:16 10:15 11:99 12:30 13:1 14:9 15:11 16:9 17:10 18:18 19:13 20:51 21:4 22:19 23:5 24:1 25:13 26:22 27:7 28:19 29:8 30:7 31:162 32:66 33:14 34:10 35:15 36:24 37:20 38:92 39:68 40:12 41:15 42:31 43:9 44:7 45:50 46:77 47:1 48:14 49:43 50:12 51:14 52:4 53:4 54:16 55:35 56:21 57:99 58:83 59:32 60:77 61:36 62:5 63:2 64:22 65:31 66:19 67:1 68:20 69:234 70:3 71:39 72:1 73:1 74:16 75:62 76:19 77:15 78:74 79:27 80:71 81:28 82:42 83:38 84:11 85:14 86:2 87:27 88:37 89:26 90:3 91:13 92:231 93:17 94:14 95:9 97:2 98:11 99:3 100:3 101:37 102:30 103:12 104:6 105:3 106:1 107:8 108:4 110:28 112:12 113:1 114:28 115:55 116:80 117:7 118:47 119:2 120:25 121:2 122:10 123:7 124:63 125:6 126:19 127:218 128:19 129:54 130:54 131:15 132:67 133:3 134:43 137:6 138:9 139:20 140:2 141:10 142:4 143:13 144:108 145:2 146:10 147:13 148:1 149:9 150:31 151:3 152:13 153:11 154:17 155:40 156:100 157:15 158:128 159:46 160:37 161:55 162:157 163:12 164:19 165:39 166:85 167:11 168:44 169:3 170:5 171:22 172:18 173:45 174:35 175:34 176:10 177:24 178:36 180:44 181:58 182:69 183:52 184:18 185:8 186:9 187:35 188:36 189:1 190:30 191:12 192:2 193:3 194:32 195:127 196:215 197:29 198:18 199:20 200:11 201:33 202:27 203:11 204:42 205:48 206:8 207:18 208:65 209:23 210:29 211:28 212:27 213:18 214:38 215:51 216:36 217:21 218:43 219:18 220:25 221:20 222:33 223:19 224:86 225:7 226:34 227:21 228:27 229:4 230:92 231:3 233:99 234:27 235:14 236:11 237:13 238:34 239:13 240:48 241:30 242:10 243:2 244:21 245:43 246:30 247:40 248:38 249:20 250:31 251:16 252:39 253:2 254:27 255:23 256:21 257:3 258:24 259:22 260:58 261:33 262:5 263:26 264:21 265:18 266:270 267:34 268:17 269:114 270:60 271:22 272:2 273:37 274:3 275:2 276:44 277:24 278:26 279:14 280:16 281:23 282:16 283:26 284:60 285:60 286:47 287:21 288:3 289:10 290:35 291:49 292:33 293:10 294:34 295:9 296:11 297:35 298:33 299:26 300:17 301:47 302:2 304:3 305:29 306:1 307:39 308:43 309:12 310:24 311:35 312:4 313:17 314:126 315:59 316:9 317:34 318:7 319:2 320:153 321:24 322:9 323:13 324:12 325:128 326:22 327:39 328:26 329:16 330:33 331:21 332:10 333:10 334:76 335:59 336:5 337:26 338:14 340:64 341:7 342:5 344:2 345:306 346:6 347:22 348:12 349:29 350:5 351:91 352:1536 353:104 354:6 356:33 357:11 358:8 359:20 361:5 362:1 363:11 364:15 365:49 366:9 367:1 368:54 369:21 370:90 372:30 373:13 374:1 375:44 376:15 377:7 378:9 379:130 380:10 381:8 382:9 383:76 384:2 385:21 386:7 387:18 388:20 389:25 390:25 393:12 394:21 395:26 396:4 397:44 398:45 399:11 400:50 401:2 402:5 403:3 404:10 405:25 406:14 407:49 408:10 409:11 410:11 411:29 412:30 414:32 415:2 416:44 417:26 418:20 419:5 420:14 421:41 422:1 423:2 424:94 425:19 426:30 427:21 428:1 429:21 430:34 431:183 432:2 433:12 434:18 435:50 436:9 437:39 438:16 439:1 440:299 442:13 443:11 444:16 445:12 446:182 447:16 448:60 449:5 450:23 
-0.0004406172454099628 0.0007810704995690323 1:8 2:36 3:4 4:98 7:10 8:38 9:12 10:6 11:36 12:27 13:2 14:3 15:6 16:8 17:27 18:8 21:4 22:11 23:14 24:9 25:13 26:18 27:12 28:6 29:5 30:4 31:72 33:23 34:6 35:9 36:15 37:11 38:79 39:103 40:6 41:16 42:15 43:4 44:4 45:28 46:80 47:23 48:1 49:11 50:3 51:9 52:12 53:9 54:9 55:20 56:16 57:14 58:15 59:13 60:5 61:24 62:1 63:6 64:20 65:45 66:21 67:5 68:7 69:8 70:9 71:28 72:13 73:7 74:4 76:11 77:11 78:21 79:21 80:26 81:5 82:16 83:11 84:4 85:3 86:2 87:9 88:7 89:6 90:6 91:14 92:176 93:10 94:7 95:17 97:2 98:20 100:11 101:11 102:31 103:8 104:4 105:2 106:1 107:9 108:1 109:12 110:12 111:1 112:11 114:25 115:41 116:20 117:13 118:32 119:6 120:7 121:2 122:7 123:2 124:2 126:16 127:15 128:21 129:55 130:75 131:6 132:10 133:8 134:10 135:1 136:1 137:13 138:4 139:45 141:2 143:12 144:86 146:9 147:13 148:2 149:1 150:8 151:2 152:20 153:8 154:14 155:18 156:250 157:30 158:63 159:17 160:47 161:17 162:200 163:8 164:36 165:42 166:8 167:25 168:13 169:1 170:5 171:9 172:20 173:23 174:67 175:72 176:26 177:68 178:57 180:16 181:35 182:14 183:12 184:14 185:8 186:5 187:61 188:20 189:10 190:55 191:7 193:3 194:37 195:38 196:255 197:18 198:7 199:27 200:17 201:16 202:7 203:11 204:15 205:12 206:6 207:2 208:96 209:54 210:25 211:15 212:29 213:26 214:11 215:15 216:44 217:15 218:4 219:22 220:13 221:30 222:6 223:26 224:115 225:5 226:16 227:60 228:16 230:38 231:25 233:25 234:18 235:8 236:8 237:10 238:10 239:12 240:23 241:21 242:13 243:1 244:7 245:47 246:12 247:15 248:15 249:5 250:15 251:18 252:43 253:1 254:13 255:14 256:10 258:54 259:10 260:28 261:17 262:6 263:11 264:6 265:10 266:120 267:12 268:14 269:155 270:24 271:19 273:11 274:4 275:5 276:97 277:9 278:30 279:17 280:29 281:17 282:13 283:63 284:37 285:16 286:27 287:25 288:2 289:13 290:15 291:41 292:25 293:12 294:76 295:2 296:4 297:12 298:23 299:17 300:19 301:35 302:2 304:8 305:25 306:1 307:15 308:45 309:9 310:5 311:25 312:3 313:10 314:25 315:9 316:8 317:37 318:9 320:27 321:17 322:5 323:8 324:18 325:4 326:22 327:34 328:18 329:15 330:97 331:11 332:8 333:22 334:23 335:68 336:5 337:16 338:26 339:2 341:11 342:6 343:1 344:12 345:210 346:6 347:13 348:8 349:64 350:7 352:4532 353:1 354:4 355:1 356:20 357:102 358:12 359:20 360:3 361:8 362:2 363:17 364:8 365:211 366:10 367:5 368:98 369:18 370:115 372:13 373:12 374:2 375:12 376:22 377:5 378:12 379:46 380:9 381:10 382:17 383:99 384:5 385:14 386:12 387:14 388:12 389:83 390:29 392:3 393:8 394:38 395:98 396:20 397:118 398:104 399:10 400:18 401:2 402:7 403:4 404:6 405:23 406:9 407:20 408:24 409:1 410:5 411:26 412:6 413:182 414:8 415:5 416:34 417:3 418:9 419:4 420:18 421:17 422:4 423:8 424:15 426:15 427:8 428:108 429:13 430:33 431:200 432:169 433:8 434:22 435:22 436:16 437:24 438:6 440:284 441:1 442:10 443:6 444:4 445:7 446:141 447:9 448:27 449:3 450:12 
-0.001260506029477782 0 1:21 2:55 3:10 4:55 5:7 6:13 7:13 8:41 9:20 10:7 11:27 12:18 14:14 15:26 16:10 17:14 18:22 19:1 21:5 22:22 24:12 25:18 26:29 27:3 28:15 29:6 30:21 31:3 32:8 33:17 34:38 35:41 36:19 37:12 38:9 39:27 40:22 41:10 42:29 43:6 44:5 45:40 46:3 48:15 50:30 51:38 52:3 53:18 54:28 55:22 56:25 57:181 58:67 59:12 60:7 61:16 62:9 63:13 64:41 65:4 66:21 67:11 68:18 69:44 70:23 71:53 72:4 74:35 75:43 76:39 77:10 78:1 79:30 80:43 81:12 82:2 83:41 84:35 85:4 86:11 87:10 88:36 89:3 90:20 91:37 92:104 93:22 94:1 95:22 96:4 97:5 98:36 99:20 100:9 101:32 102:18 103:25 104:24 105:2 107:57 108:8 109:5 110:60 111:1 112:34 114:6 115:23 116:25 117:19 118:47 119:21 120:9 121:11 122:21 123:45 124:11 125:3 126:52 127:48 128:11 129:77 130:3 131:18 132:20 133:1 134:9 135:9 136:3 137:34 138:28 139:6 140:3 141:5 142:13 143:14 144:87 145:13 146:29 147:20 149:12 150:21 151:14 152:29 153:30 154:21 155:39 156:222 157:16 158:30 159:58 160:21 161:176 162:7 163:13 164:7 165:4 166:138 167:23 168:17 169:2 170:7 171:55 172:12 173:45 174:27 175:46 176:34 177:27 178:33 179:15 180:2 181:51 182:5 183:25 184:17 185:19 186:11 187:31 188:48 189:7 190:55 191:3 192:1 193:5 194:29 195:72 196:1077 197:44 198:37 199:17 200:14 201:20 202:43 203:24 204:53 205:56 206:6 207:8 208:41 209:43 210:1 211:59 212:10 213:38 214:77 215:40 216:63 217:15 218:22 219:17 220:22 222:29 223:71 224:17 225:43 226:36 227:20 228:56 229:25 230:2 231:3 232:16 233:1 234:93 235:17 236:31 237:20 238:14 239:15 240:48 241:78 242:15 243:18 244:36 245:23 246:14 247:85 248:37 249:14 250:22 251:7 252:30 253:1 254:17 255:32 256:22 257:1 258:14 259:46 260:63 261:22 262:10 263:4 264:32 265:26 266:71 267:47 268:15 269:124 270:38 271:13 272:6 273:45 274:16 275:4 276:28 277:29 278:17 279:5 280:30 281:22 282:27 283:8 284:75 285:48 286:50 287:23 288:1 289:12 290:64 291:45 292:36 293:15 294:11 295:4 296:1 297:49 298:27 299:29 300:23 304:10 305:21 307:3 308:3 309:13 310:19 311:37 312:2 313:17 314:137 315:1 316:21 317:42 318:5 320:10 321:11 322:1 323:36 324:22 325:4 326:31 327:13 328:21 330:1 331:17 332:1 334:28 335:32 336:12 337:2 338:10 339:1 340:35 341:6 342:1 344:2 345:61 346:4 347:7 348:5 349:36 350:3 351:23 352:4023 353:8 354:21 356:24 357:25 358:21 359:2 360:14 361:3 362:6 363:7 364:11 365:22 366:8 367:3 369:15 370:61 372:22 373:16 375:1 376:7 377:8 378:9 379:15 380:35 381:2 382:4 384:5 385:36 386:4 387:7 388:32 389:1 390:34 391:2 392:2 393:5 394:92 396:7 397:8 398:1 399:14 400:38 401:5 402:6 403:9 404:16 405:20 406:1 407:3 408:24 409:11 410:7 411:30 412:20 413:16 414:9 415:11 416:36 417:6 418:19 419:16 420:6 421:39 422:16 423:5 424:12 425:33 426:25 427:16 428:7 429:21 430:12 431:54 432:11 433:2 434:21 435:39 436:22 437:10 438:25 439:4 440:31 441:5 442:13 443:25 444:20 445:1 446:35 447:10 449:28 450:13 
-0 0.003337940623048254 1:13 2:24 3:4 5:4 8:38 9:15 11:3 12:34 13:6 14:4 15:7 17:7 18:13 19:1 20:6 21:13 22:17 23:3 24:7 25:2 26:28 27:23 28:3 30:10 31:8 32:4 33:5 34:13 35:8 36:8 37:13 38:43 39:8 40:13 41:8 42:25 43:1 44:9 45:42 46:3 47:2 48:2 49:39 51:8 52:9 53:12 54:8 55:16 56:52 57:17 58:14 59:6 60:14 61:34 63:6 64:6 65:15 66:6 67:11 68:11 69:3 70:6 71:23 72:4 73:5 74:10 75:33 76:11 77:8 78:20 79:19 80:32 81:29 82:22 83:22 84:8 85:1 86:1 87:3 88:22 89:11 91:17 92:10 93:28 95:13 96:2 97:1 98:7 99:1 100:8 101:15 102:3 103:4 104:11 105:8 106:3 107:9 108:9 109:2 110:24 111:5 112:3 114:4 116:33 117:4 118:31 119:9 120:13 121:3 122:18 123:10 124:9 125:2 126:19 127:55 128:15 129:5 130:2 131:2 132:8 133:4 134:1 135:6 136:1 137:5 138:10 139:4 141:4 142:6 143:12 145:3 146:10 147:5 148:3 149:2 150:9 151:17 152:24 153:7 154:26 155:12 156:5 157:35 158:15 159:6 160:7 161:15 162:11 163:3 164:13 165:5 166:3 167:3 168:44 169:46 170:7 171:14 172:5 173:51 174:15 175:17 176:6 177:3 178:94 179:8 180:6 181:35 182:34 183:7 184:32 185:36 186:23 187:10 188:41 189:13 190:2 191:6 192:14 193:18 194:21 195:30 197:19 198:10 199:40 200:21 201:42 202:10 203:26 204:10 205:12 206:15 207:10 208:11 209:18 210:3 211:18 212:5 213:44 214:30 215:5 216:74 217:11 218:2 219:21 220:17 221:23 222:12 223:37 224:43 225:4 226:23 227:4 228:8 229:18 230:3 231:4 232:57 233:3 234:26 235:25 236:12 237:16 238:6 239:4 240:24 241:10 242:16 243:60 244:8 245:14 246:17 247:1 248:26 249:10 250:17 251:4 252:62 253:12 254:8 255:16 256:38 258:2 259:28 260:44 261:51 262:5 263:14 264:14 265:15 266:19 267:13 268:5 269:1 270:5 271:27 272:49 273:10 274:17 275:14 276:54 277:3 278:26 279:2 280:3 281:16 282:13 283:28 284:44 286:33 287:17 288:42 289:3 290:13 291:87 292:41 293:19 294:7 295:22 296:1 297:28 298:39 299:23 300:33 301:18 302:1 303:7 304:1 305:12 307:1 308:4 309:3 310:15 311:7 312:1 313:3 314:15 315:27 316:22 317:44 318:3 319:3 320:8 321:11 322:3 323:12 324:15 325:28 326:22 327:25 328:40 329:12 330:20 331:14 332:2 333:9 334:17 335:13 336:5 337:2 338:7 339:1 340:14 341:18 342:3 343:7 344:12 345:38 346:5 347:8 348:2 350:3 352:8696 353:3 354:5 355:1 356:32 357:4 358:11 359:5 360:17 361:2 362:1 363:22 364:6 365:15 366:10 367:1 368:34 369:25 370:17 371:1 372:21 373:15 374:3 375:10 376:15 377:13 378:6 379:28 380:14 381:8 382:1 383:6 384:11 385:10 386:17 387:25 388:18 389:8 390:37 391:3 392:2 393:9 394:7 395:31 396:11 397:2 398:28 399:9 400:18 401:10 402:3 403:10 404:7 405:36 406:3 407:52 408:23 409:1 410:2 411:25 412:5 413:7 414:7 415:5 416:60 417:7 418:26 419:10 420:14 421:17 422:7 423:4 424:6 426:31 427:8 428:1 429:25 430:19 431:21 432:4 433:2 434:40 435:22 436:22 437:31 438:10 439:3 440:76 441:4 442:14 443:6 444:7 445:2 446:16 447:7 448:18 449:4 450:25 
